{"obs_dim": 27, "n_actions": 101, "layers": [{"w": [[-0.28535, 0.006896, 0.263671, -0.28016, -0.066768, -0.046532, 0.08054, -0.271804, -0.229596, 0.475294, 0.045127, -0.182612, -0.145263, -0.151045, 0.18566, 0.320266, -0.069992, -0.380453, 0.358957, 0.214766, -0.253861, 0.038478, -0.201692, 0.006233, -0.057359, -0.598649, -0.185712], [0.109107, 0.237056, 0.15422, -0.08469, -0.184047, 0.21395, -0.120445, -0.345371, -0.153243, 0.125491, -1.006135, 0.043944, 0.352482, 0.254718, -0.052318, 0.331048, 0.483889, -0.364244, -0.272705, 0.224849, 0.478923, 0.41702, 0.208281, 0.085456, -0.280674, 0.337342, -0.216972], [-0.524118, -0.183673, 0.265455, 0.363371, 0.364001, -0.133602, 0.445347, -0.082848, 0.172313, -0.33493, -0.092604, -0.138568, -0.26424, 0.107542, -0.472168, 0.290108, -0.264725, -0.13644, -0.02412, 0.152804, 0.185858, -0.099382, -0.325271, -0.080877, -0.227756, -0.107528, -0.365612], [-0.076365, 0.081748, 0.352111, 0.149144, -0.447791, 0.134944, 0.289426, -0.012858, -0.007421, 0.596901, 0.326604, 0.2389, 0.207442, 0.093376, 0.350981, 0.064679, 0.045356, -0.05322, -0.181278, -0.447501, -0.216328, -0.034696, 0.172834, -0.606178, -0.179944, 0.097607, -0.309279], [-0.091713, -0.368199, -0.026666, 0.156452, -0.040279, -0.144221, -0.30768, -0.015047, 0.046725, 0.101168, 0.673134, -0.450559, 0.462945, -0.188016, -0.210554, -0.227245, 0.163267, 0.565956, 0.017164, -0.16739, -0.20441, 0.139649, 0.37987, -0.354896, -0.170857, 0.068914, -0.328906], [0.327949, 0.128701, 0.002823, -0.116617, -0.195073, -0.085152, 0.040948, -0.083306, -0.080316, 0.19047, 0.138678, 0.163785, -0.27309, -0.475282, -0.01047, -0.437295, -0.337173, -0.05097, -0.128572, 0.028139, 0.467434, -0.237257, -0.420216, -0.472636, 0.4517, 0.202455, -0.328948], [-0.278744, -0.271946, -0.110763, -0.039868, 0.432868, -0.261791, 0.044859, -0.072886, 0.416719, -0.228053, -0.207624, 0.180522, 0.412156, -0.221812, 0.207566, -0.136266, 0.33277, 0.521727, -0.31001, 0.264478, -0.263667, -0.132413, 0.096933, 0.094103, 0.376234, 0.124097, -0.051178], [-0.182951, 0.24571, -0.24133, 0.137517, 0.086751, -0.140593, -0.263773, 0.240994, 0.01922, 0.241356, 0.259616, 0.298653, -0.425746, -0.297784, -0.175785, -0.328689, -0.139625, -0.016628, 0.079779, -0.266132, -0.337644, 0.115014, -0.142716, 0.136765, -0.379685, -0.128161, -0.375393], [0.283047, 0.408133, -0.048003, 0.108089, -0.366304, 0.100246, 0.200278, 0.004094, -0.032438, -0.509641, -0.287052, 0.088365, -0.576819, 0.455171, -0.339198, 0.180999, 0.336084, 0.217784, 0.007969, -0.058466, 0.43309, 0.117294, -0.496165, 0.231931, -0.120447, 0.22601, 0.021224], [0.42208, 0.354779, -0.20924, 0.042661, 0.013943, -0.012015, 0.147739, 0.182416, 0.207937, 0.531691, -0.296536, -0.422138, 0.399819, -0.172262, -0.270846, -0.118096, 0.088061, 0.087164, 0.219991, -0.210293, -0.164602, -0.003282, 0.220157, 0.047554, 0.041149, 0.313866, 0.018651], [-0.189273, -0.509497, 0.171377, 0.267181, 0.255214, -0.19498, 0.163972, 0.085868, -0.044816, -0.53458, 0.411844, -0.120172, -0.011024, -0.316406, 0.180891, 0.394293, 0.250995, 0.043287, 0.313826, 0.226518, 0.032724, 0.422059, -0.051533, -0.082913, 0.359229, -0.385908, 0.220015], [0.366088, 0.170568, 0.059224, -0.105509, 0.130523, 0.223141, -0.036278, 0.146032, 0.015432, 0.882764, -0.234364, 0.351314, -0.371775, 0.046262, 0.003068, -0.396708, -0.378285, -0.267924, -0.292446, -0.119956, -0.207156, -0.259769, -0.032204, -0.218739, -0.091455, -0.427241, -0.214684], [-0.130763, 0.299253, 0.293203, -0.261294, 0.134143, 0.080937, 0.149464, 0.178943, 0.174861, -0.719579, 0.209006, 0.036076, 0.464468, -0.123111, -0.04125, 0.060386, 0.147445, -0.182539, -0.03742, 0.193296, 0.275317, -0.212081, 0.060124, -0.39868, -0.34319, -0.26098, -0.185795], [-0.080909, -0.067538, -0.566209, 0.064698, -0.256631, -0.04053, 0.383543, 0.090951, -0.111764, 0.28276, 0.36681, -0.257569, -0.215166, -0.36902, -0.277222, -0.209888, -0.198946, 0.145743, -0.157955, -0.319464, -0.109592, 0.125593, 0.363032, 0.298413, -0.321926, -0.2377, -0.036371], [0.303176, 0.199609, -0.07102, 0.118901, -0.052863, -0.057941, -0.107776, 0.124747, -0.034854, -0.050102, -0.596913, 0.148005, 0.173519, 0.086367, -0.153728, 0.012998, 0.158838, 0.261162, 0.288227, 0.208839, -0.003298, -0.00418, -0.414957, 0.350797, -0.106605, 0.403398, 0.270929], [-0.021521, -0.020533, 0.450741, -0.330187, -0.021246, 0.029397, 0.407293, -0.054885, -0.229941, -0.050446, -0.158592, 0.09175, -0.103644, -0.217502, 0.111089, -0.028333, 0.423054, -0.081681, 0.437312, 0.471868, 0.248105, 0.083842, -0.251849, -0.186319, 0.071471, 0.610179, -0.056847], [-0.36319, -0.230423, -0.334822, 0.056697, 0.287657, -0.026953, -0.107679, 0.108155, -0.401011, -0.831786, 0.37169, -0.163602, 0.154357, 0.383148, 0.259928, -0.352933, 0.311908, -0.200127, 0.082203, 0.401591, -0.368496, 0.592836, 0.151971, 0.160041, 0.246368, 0.039432, 0.454538], [-0.156853, 0.044303, -0.107499, -0.289283, 0.0276, 0.408532, -0.21621, 0.075932, 0.078156, 0.244163, 0.589829, -0.232819, -0.656305, -0.605794, -0.283743, -0.439326, 0.112289, -0.138367, -0.185327, -0.039901, -0.192279, -0.164443, -0.086391, -0.426157, 0.246596, -0.11539, -0.10739], [-0.206795, 0.05477, 0.593539, 0.068321, 0.328974, -0.008506, 0.049031, -0.03651, -0.039939, 0.048463, 0.017375, 0.005216, -0.204289, -0.457989, -0.119897, -0.271585, -0.346753, 0.485497, 0.255639, 0.221418, 0.200787, 0.142251, 0.108434, 0.418449, 0.117954, 0.286363, 0.169324], [0.346098, 0.137578, -0.087962, 0.435178, -0.099297, 0.04179, 0.072383, 0.615277, 0.251746, 0.343243, -0.321325, 0.080862, -0.196051, -0.137147, -0.2521, 0.223746, -0.244808, -0.419827, 0.088587, -0.182337, 0.056792, -0.130529, -0.056526, -0.461387, -0.341089, 0.149063, -0.238673], [0.130327, 0.302174, -0.100771, 0.186238, 0.270457, 0.210393, -0.248389, -0.046843, -0.188758, 0.478742, -0.180909, -0.08124, 0.043667, -0.322726, 0.102215, 0.551193, 0.171331, -0.092477, 0.032568, -0.121363, -0.07679, -0.224614, -0.017765, -0.292194, -0.166909, -0.133555, -0.161576], [-0.030516, 0.311586, -0.04253, -0.122572, 0.465823, 0.284038, -0.061975, 0.363876, -0.090136, 0.167273, -0.246044, 0.13577, -0.075007, -0.301633, 0.222321, -0.020925, -0.141018, 0.145104, -0.158913, 0.041375, -0.258243, -0.154446, 0.530205, -0.240379, -0.01475, 0.266602, 0.112436], [0.16325, -0.061224, 0.091077, 0.029523, 0.53207, 0.160302, 0.38098, -0.137618, 0.0684, 0.851118, -0.225399, -0.101272, -0.231942, 0.017162, -0.17423, -0.528643, -0.284887, -0.245528, -0.094777, -0.400852, 0.29358, 0.070608, -0.051228, 0.062959, -0.216334, 0.440766, 0.267687], [-0.3308, -0.05945, 0.173063, -0.052885, -0.060446, -0.066455, 0.098582, 0.117499, -0.177123, 0.209907, 0.459288, 0.202152, 0.617421, -0.320862, -0.640092, -0.329162, -0.059173, 0.758801, -0.319109, -0.143668, -0.183907, 0.249118, 0.263077, -0.469467, -0.021303, -0.212978, 0.02986], [-0.053039, 0.0105, -0.012936, 0.043558, -0.017098, 0.371791, 0.220329, 0.192722, -0.069214, 0.287712, 0.443922, 0.08706, 0.127223, -0.165412, 0.018806, -0.693782, -0.140784, -0.116469, -0.029229, 0.320305, -0.497409, -0.049023, -0.509693, 0.305235, -0.056038, -0.306802, -0.013341], [0.240013, -0.067761, 0.698334, -0.038516, -0.035353, -0.051159, 0.136586, -0.039578, 0.115614, -0.546222, -0.157094, 0.002386, -0.311629, -0.22992, 0.206295, 0.15923, -0.103955, -0.071074, -0.234042, 0.547021, 0.273133, 0.17361, 0.073532, -0.04934, 0.251021, 0.320541, 0.481436], [-0.31094, -0.354176, 0.288139, 0.176186, -0.003935, 0.035666, -0.11967, -0.177965, -0.203378, -0.743962, -0.2473, -0.037653, 0.063775, 0.303562, -0.092106, -0.169085, 0.420176, 0.678448, 0.173372, 0.072138, 0.127941, -0.152317, 0.058364, 0.221005, -0.302196, -0.341701, 0.099288], [0.39294, 0.095689, -0.036566, 0.224224, -0.383735, 0.103094, -0.197397, -0.51131, -0.116058, 0.218459, -0.193153, -0.197674, 0.076473, -0.001837, 0.483746, 0.011506, -0.00682, 0.025419, 0.013276, 0.468201, -0.033566, 0.042266, -0.17413, 0.159398, -0.343407, 0.474078, -0.088506], [0.097293, 0.257487, -0.297146, 0.140753, -0.265735, -0.03567, -0.139635, 0.072723, -0.03999, 0.734735, -0.33059, -0.018375, 0.341658, -0.095751, 0.380321, 0.385194, 0.402804, 0.335613, 0.189608, -0.462022, -0.160057, -0.083176, -0.378482, 0.063548, -0.204764, -0.206285, 0.323725], [0.588234, 0.163552, -0.254235, -0.018047, -0.007127, 0.028283, -0.127148, 0.187205, -0.453544, 0.105342, -0.178317, 0.184984, 0.024283, 0.298662, 0.547256, 0.386354, 0.174208, 0.11012, -0.116644, 0.070305, 0.025552, 0.060001, -0.402496, 0.210718, -0.035464, 0.186833, -0.246316], [0.334934, 0.234204, -0.219733, -0.425662, -0.144473, -0.349833, 0.011069, -0.257444, 0.13214, -0.256441, 0.039257, 0.093413, 0.399999, 0.695624, 0.451269, 0.430421, 0.423048, -0.290294, 0.261542, 0.151065, 0.278279, 0.330305, 0.013919, 0.045936, 0.455601, -0.15319, 0.034649], [-0.166614, -0.123876, 0.413156, 0.362653, -0.058987, -0.038872, -0.098043, -0.00331, 0.314314, -0.271265, -0.082313, -0.155994, -0.25346, 0.030106, 0.19128, -0.510503, -0.079977, 0.350602, -0.612372, 0.375013, 0.349172, 0.124203, 0.052346, 0.210433, 0.32724, 0.401168, -0.043699], [0.006858, -0.33114, -0.487197, -0.066855, -0.144845, -0.077331, -0.225797, -0.153448, -0.262115, 0.610542, -0.042057, 0.220185, -0.050495, 0.724671, 0.076722, 0.092127, 0.264, -0.050949, 0.319333, 0.328918, 0.322573, -0.031732, 0.129317, -0.145459, -0.115737, -0.032262, 0.097888], [-0.035845, 0.072838, 0.048988, 0.077815, -0.152081, 0.274194, 0.164561, 0.072558, 0.368024, -0.20497, 0.150796, -0.010588, 0.11138, -0.503039, -0.083951, -0.1711, -0.162838, 0.187793, -0.580048, -0.393963, -0.248655, -0.256497, 0.176043, -0.268199, -0.349102, -0.115838, 0.092866], [-0.249671, -0.142995, 0.335544, 0.33431, -0.179125, -0.105115, 0.196831, 0.232424, 0.060926, -0.155301, -0.100796, 0.199667, 0.206628, -0.472381, -0.268448, -0.073162, -0.017189, 0.21286, -0.300467, 0.000473, 0.05804, 0.119789, -0.012846, 0.308559, -0.002807, 0.469855, 0.119957], [0.316856, 0.210026, -0.109121, 0.078013, -0.099974, 0.062842, -0.158204, 0.199724, -0.052355, 0.036966, -1.059007, 0.133958, -0.031181, 0.083961, -0.057482, -0.195227, -0.067049, 0.298629, 0.079503, -0.064641, 0.053603, 0.017497, 0.136191, 0.442745, 0.18774, -0.012881, 0.001024], [-0.291424, 0.243617, -0.248265, 0.206197, -0.515673, -0.171203, -0.022603, -0.237953, -0.317471, 0.464036, -0.818556, 0.055454, 0.425073, 0.126656, -0.067152, 0.362125, -0.061831, -0.532115, -0.022008, 0.52212, 0.518226, -0.130095, -0.260287, -0.54149, 0.303772, 0.183935, 0.180554], [-0.088217, -0.137916, 0.312094, 0.326368, 0.646617, 0.320489, 0.107808, 0.133069, -0.137606, 0.862184, -0.378371, -0.162232, -0.04756, 0.149873, 0.178665, -0.108457, 0.229689, -0.17457, -0.150267, -0.311454, -0.419699, -0.513862, -0.281362, 0.241752, 0.143989, 0.220887, -0.035448], [0.115451, -0.430211, 0.107711, -0.059788, -0.108821, -0.182458, 0.082768, 0.074429, -0.351913, 0.186364, -0.104979, -0.05423, -0.210345, -0.312652, -0.071831, -0.129114, -0.208874, 0.121969, -0.256306, 0.274139, -0.342305, -0.083089, -0.193021, -0.62385, -0.693916, -0.265876, -0.223133], [-0.112652, -0.239624, 0.458195, 0.244388, -0.083228, 0.407376, -0.060522, 0.220816, -0.216733, -0.317567, -0.238244, 0.166194, -0.467125, -0.404781, -0.270277, -0.203513, -0.541675, -0.041494, 0.237843, 0.074266, 0.242031, 0.05085, 0.331166, -0.240241, 0.038864, 0.065713, -0.117646], [0.077016, 0.068879, -0.220546, 0.123241, 0.035745, 0.051499, -0.066931, 0.360861, -0.081048, 0.517625, -0.579785, 0.006896, 0.38956, -0.093392, -0.101561, -0.529593, 0.029394, -0.243589, 0.237691, -0.196513, -0.74706, -0.016003, -0.190137, 0.339649, 0.008839, -0.204895, -0.372657], [0.198186, -0.114859, 0.316408, 0.086133, 0.195821, -0.194717, 0.111303, 0.177423, -0.168594, -0.290616, -0.454929, -0.237985, 0.350224, 0.134865, 0.477607, -0.221582, -0.13268, 0.337235, -0.084704, 0.02368, 0.139289, 0.22268, -0.228779, -0.423573, -0.14753, -0.168592, -0.143448], [0.01767, -0.445098, -0.340869, 0.441373, 0.300563, -0.060849, 0.36017, -0.238783, 0.015643, -0.250507, -0.316, 0.42708, -0.239506, 0.139878, 0.036735, -0.085432, 0.209422, -0.279481, 0.394757, -0.545448, -0.170991, -0.062561, 0.059947, 0.467704, -0.148976, -0.360513, 0.043157], [0.163149, 0.354417, -0.251524, -0.025421, 0.23758, 0.209658, 0.28198, -0.020958, -0.101056, 0.541811, -0.284913, -0.341176, 0.306047, 0.546044, -0.098446, 0.01367, 0.036556, 0.156064, -0.142308, -0.059553, -0.092076, -0.136196, -0.154548, -0.104773, -0.446213, -0.359081, -0.483561], [-0.008855, 0.089605, -0.58236, 0.103507, 0.292141, 0.133667, 0.10409, 0.081972, 0.293405, -0.470329, -0.425524, 0.009209, 0.106079, -0.37135, 0.041073, -0.613255, -0.1178, 0.389434, 0.027374, 0.065137, 0.338584, 0.390732, 0.110346, 0.315976, -0.225407, -0.072785, 0.125222], [-0.118031, 0.228371, 0.082722, -0.039597, -0.02624, 0.220662, 0.232206, -0.173008, -0.036658, 0.504973, 0.53164, 0.296969, 0.039381, -0.546774, 0.027023, -0.005794, -0.197797, 0.149904, 0.192668, -0.085595, -0.613274, 0.055702, 0.47124, -0.288429, -0.250185, -0.403096, -0.018925], [-0.031396, 0.04794, -0.510354, 0.271832, 0.057859, 0.24995, -0.15133, 0.413478, -0.060376, 0.034186, 0.418886, -0.145954, -0.15791, -0.067861, -0.34239, -0.461334, -0.475362, 0.070826, 0.202581, 0.038329, -0.512525, -0.300743, 0.270697, 0.338808, 0.411272, -0.131591, 0.302408], [-0.128898, -0.073469, 0.147094, -0.026344, -0.050874, -0.390554, -0.047078, 0.264757, -0.107302, 0.241089, -0.533792, -0.012901, -0.220991, 0.093158, 0.041736, 0.184002, -0.185577, -0.090592, -0.217716, -0.003127, -0.039659, -0.304921, 0.250826, 0.72927, -0.2738, 0.236189, 0.181765], [0.163409, 0.275929, -0.13555, 0.208845, -0.1255, 0.048221, 0.305012, -0.135792, 0.130889, 0.034177, 0.04978, 0.008987, -0.051501, 0.722889, -0.17318, -0.08114, 0.174587, 0.144529, 0.095209, -0.247678, -0.10707, -0.224166, 0.157648, -0.072352, -0.285971, -0.138803, -0.047633], [-0.65322, -0.310462, -0.064396, -0.307045, 0.244611, 0.045014, -0.269955, 0.045556, -0.120581, -0.539513, 0.467478, 0.174808, 0.336543, -0.012111, -0.258108, -0.18343, -0.453117, 0.071375, 0.282762, -0.359244, -0.129373, 0.006241, -0.30317, 0.128211, -0.263134, 0.279217, -0.082028], [-0.121261, -0.243408, 0.510226, 0.218982, 0.034863, 0.134828, -0.186553, 0.230468, -0.063992, -0.027285, 0.077851, -0.063239, 0.367677, -0.260315, -0.520502, 0.127036, 0.017885, -0.226142, 0.087616, -0.267584, 0.57387, 0.456909, 0.180908, 0.240157, 0.292683, 0.247239, 0.497143], [-0.210934, -0.536976, 0.06894, 0.367711, 0.122008, 0.149231, -0.345475, -0.093192, 0.355833, -0.502166, 0.578735, 0.220222, 0.38683, 0.064519, -0.059831, 0.206825, 0.090862, 0.334169, -0.205688, -0.244604, -0.045123, 0.184215, 0.029397, -0.111387, -0.185214, -0.399088, -0.258769], [-0.250918, 0.412459, -0.005875, 0.291552, -0.15252, -0.3126, -0.093762, 0.004571, -0.239983, -0.320792, -0.670134, -0.180015, -0.513191, 0.601961, 0.660128, -0.071015, 0.084158, 0.094498, 0.585742, -0.374487, 0.290262, 0.211451, -0.186017, 0.451717, 0.232848, 0.216592, 0.145105], [0.044583, 0.034913, 0.187629, -0.391467, -0.371033, -0.102541, 0.075091, 0.374695, -0.299865, 0.072407, -0.629527, -0.173791, 0.053142, -0.530142, 0.14103, 0.430006, 0.03499, -0.08237, -0.452241, 0.100626, 0.547833, -0.170563, -0.136353, -0.2105, -0.072828, -0.293379, -0.146459], [-0.231602, 0.073407, 0.073576, 0.328195, 0.339405, 0.114626, -0.018293, -0.235025, -0.161996, 0.313173, 0.708658, 0.053559, 0.257296, -0.057223, 0.159915, -0.077605, -0.042538, 0.462538, -0.588166, 0.046126, 0.373583, 0.212057, -0.10293, 0.021858, -0.082948, -0.468081, -0.015327], [0.176014, -0.045756, 0.213536, -0.257841, 0.083004, -0.006917, -0.250661, -0.195941, 0.125144, 0.355223, -0.511661, -0.126615, -0.307926, -0.318956, 0.172656, -0.080724, -0.245174, -0.558176, 0.602934, 0.354474, 0.168635, -0.056586, -0.23021, 0.278685, 0.026835, -0.418272, -0.389918], [0.29538, 0.268222, -0.106136, -0.42588, -0.026915, -0.130509, -0.054381, 0.101581, 0.293767, 0.202433, -0.717615, 0.041873, 0.175414, -0.026641, -0.029349, -0.117497, 0.243982, -0.282193, -0.366711, -0.411299, -0.091149, -0.336887, 0.002257, 0.047841, -0.09918, 0.314663, 0.479609], [0.167941, 0.4497, 0.079893, -0.085793, -0.13854, 0.130493, -0.041083, 0.114582, 0.419252, 0.578218, -0.431723, -0.036659, -0.330327, -0.145072, -0.414839, 0.057996, -0.118704, -0.050284, -0.561934, -0.313677, -0.245921, 0.152971, 0.015383, -0.519011, -0.139798, 0.072557, -0.107252], [0.201383, 0.004786, 0.197991, -0.00021, -0.095616, 0.11544, -0.482196, 0.051202, 0.143002, 0.318112, 0.728715, -0.074495, 0.087082, 0.181269, 0.067426, -0.074175, -0.08772, 0.354203, -0.047114, 0.156408, 0.072975, 0.120671, -0.150673, -0.154342, -0.489786, -0.160791, 0.245878], [-0.181689, -0.107562, -0.003467, 0.378063, 0.103229, 0.255773, -0.099902, 0.073598, 0.283589, 0.090625, 0.257615, 0.004094, -0.019168, -0.226241, 0.232928, -0.218505, 0.120068, -0.558602, 0.130638, -0.484277, 0.149106, -0.423838, 0.064414, -0.057937, -0.388043, -0.42167, -0.153626], [-0.108904, 0.049832, 0.120858, 0.119713, -0.131714, -0.431813, -0.407212, 0.055893, 0.164288, 0.198808, -0.722363, 0.123265, 0.054484, 0.332149, 0.130768, -0.087889, 0.498272, -0.250755, 0.037754, 0.319048, 0.138696, 0.102608, 0.021287, -0.302186, 0.159652, 0.155889, 0.061224], [-0.02715, 0.138339, -0.249323, 0.059035, 0.370158, -0.185445, -0.115875, 0.045983, 0.326953, 0.2995, -0.545257, 0.02231, -0.021596, -0.206195, 0.084864, -0.76705, -0.312015, 0.035366, 0.425525, 0.354082, -0.010838, -0.06702, -0.053438, 0.141987, -0.352295, 0.12021, 0.207891], [-0.253325, -0.218127, 0.077449, 0.250784, -0.124416, -0.255786, -0.076121, 0.393656, -0.316354, -0.261189, 1.03615, 0.120105, 0.208869, -0.278385, -0.175048, -0.12829, 0.253805, 0.214904, 0.063945, 0.151706, 0.493064, 0.057441, 0.669996, 0.126036, 0.062883, -0.150767, 0.045562], [0.216086, 0.172369, -0.01087, 0.348917, -0.126848, 0.155, -0.007668, -0.269354, -0.155035, 0.18885, -0.218404, -0.024489, 0.337219, 0.123592, -0.101523, -0.181666, -0.025386, 0.110797, -0.416685, -0.636569, -0.244436, -0.549528, -0.030592, -0.042121, 0.037311, 0.158069, 0.111737]], "b": [0.049413, -0.046433, 0.052494, 0.075593, 0.039202, 0.03768, -0.047313, 0.145681, -0.011303, 0.024752, -0.059477, 0.067537, 0.036221, 0.055884, -0.068249, -0.052054, -0.063285, 0.091725, 0.033528, 0.045048, 0.026478, 0.009426, 0.081645, 0.041902, 0.019226, -0.041254, -0.028079, -0.051141, -0.028665, 0.096912, -0.113758, -0.027174, -0.085903, 0.03554, 0.01274, 0.02699, -0.004627, 0.00671, -0.005099, -0.001986, 0.050143, 0.043139, 0.039102, 0.049704, -0.046903, 0.084185, 0.042087, -0.020934, 0.043823, -0.084727, -0.00213, -0.0301, -0.117222, 0.004522, 0.062677, -0.036878, 0.06182, 0.11722, 0.045188, 0.177585, -0.015157, 0.095614, -0.063491, 0.051087], "act": "tanh"}, {"w": [[-0.229705, 0.345629, -0.474869, 0.222445, 0.4857, -0.034111, 0.169188, -0.142046, -0.27088, 0.163739, -0.083598, -0.375248, 0.297066, -0.275467, 0.097495, -0.238586, -0.037781, -0.03488, 0.25711, -0.05421, -0.034952, 0.317788, -0.324562, 0.315615, -0.375514, -0.023245, -0.145247, 0.129821, -0.01294, 0.040611, -0.310926, 0.082197, -0.077933, 0.116948, 0.376322, 0.014387, 0.169043, -0.313666, -0.172664, 0.090022, -0.184046, 0.10599, -0.553856, -0.181527, -0.537697, 0.112738, -0.179532, -0.110744, -0.064868, -0.350394, -0.011139, -0.133847, -0.209312, 0.32949, 0.150602, -0.633451, -0.233986, -0.365701, 0.173871, -0.164305, -0.179916, -0.202075, 0.48745, 0.500633], [-0.167784, 0.584126, -0.068741, -0.191355, 0.018995, -0.050882, 0.252202, -0.298812, 0.195121, 0.284675, 0.123177, -0.330498, 0.313738, 0.088264, 0.086329, 0.310425, -0.284309, -0.046881, 0.016838, -0.067509, -0.047066, 0.254377, -0.157425, -0.092305, -0.19332, 0.095409, -0.015568, -0.502433, -0.143003, -0.094707, 0.153999, 0.233009, -0.246113, 0.230545, 0.470519, 0.28607, -0.156976, -0.104359, -0.060544, -0.039652, 0.134627, 0.107853, -0.088512, -0.204039, 0.116495, -0.570403, 0.03416, -0.222029, 0.294753, 0.254892, 0.364676, 0.077463, -0.32178, 0.593204, -0.21841, 0.037239, 0.507571, 0.213524, -0.576767, 0.152215, 0.339533, -0.23194, 0.414957, -0.174089], [0.377433, -0.21524, -0.373876, 0.102649, 0.5344, 0.190653, 0.02673, 0.463064, -0.040252, -0.0674, -0.172727, 0.23303, -0.148306, 0.298164, 0.126224, -0.398819, -0.012106, 0.032252, -0.209993, -0.214007, 0.256577, -0.173801, -0.021836, 0.314955, -0.456549, -0.044529, 0.393877, 0.026829, -0.108529, 0.292973, -0.413631, -0.269717, 0.103245, 0.015504, -0.413191, -0.101744, -0.248382, -0.16916, 0.11657, -0.437156, -0.08084, 0.069642, 0.127916, 0.130632, -0.193483, -0.064875, -0.176174, 0.013437, -0.132468, 0.224449, 0.071965, -0.007942, -0.010895, -0.243235, 0.282625, -0.313481, 0.008132, 0.465023, -0.117424, 0.153516, -0.335549, 0.196323, 0.143626, 0.306607], [0.115545, 0.141029, -0.098564, 0.092304, 0.019887, 0.170212, -0.254721, 0.795243, -0.20486, -0.257975, -0.281477, 0.253397, -0.190101, 0.070731, -0.227124, -0.234615, -0.312967, -0.023402, -0.058206, 0.347658, 0.093393, -0.068748, 0.202337, 0.321274, 0.233387, 0.167898, -0.290733, 0.328111, 0.044696, 0.071181, -0.580377, -0.189043, -0.098295, -0.411397, -0.042504, 0.050787, 0.245901, 0.325721, 0.527646, -0.168197, 0.13092, 0.040268, -0.167836, 0.194173, -0.146817, 0.199331, 0.018855, -0.203672, 0.385943, -0.201943, -0.208385, -0.555948, -0.240406, 0.319592, 0.125385, 0.53541, 0.036422, 0.418574, 0.20791, 0.453761, 0.122434, 0.499182, -0.192721, 0.041103], [-0.054369, 0.68761, -0.218844, -0.279027, -0.137148, -0.318933, -0.061158, 0.017637, 0.503137, 0.350786, -0.288173, -0.668031, 0.068268, 0.192666, 0.386377, -0.041356, -0.048357, -0.672086, -0.391277, 0.217716, -0.066633, -0.015018, -0.100139, -0.350525, -0.458061, 0.324848, -0.173629, -0.008901, 0.085752, 0.239328, 0.97579, -0.093568, 0.43211, -0.149748, -0.14639, 0.141576, 0.209067, -0.363927, -0.23776, -0.405629, 0.280302, -0.077384, -0.226998, 0.250613, 0.212041, -0.189576, -0.428623, -0.128015, 0.070205, -0.224245, -0.103403, 0.120062, -0.016977, -0.021073, -0.563845, -0.071677, 0.124377, -0.380703, -0.089648, -0.513271, 0.158486, -0.017072, -0.390613, -0.193503], [-0.456415, 0.11698, -0.162389, 0.117539, 0.228696, -0.27154, -0.24845, -0.050502, -0.051322, 0.23676, -0.337476, 0.472077, 0.054285, 0.098015, -0.247669, -0.150714, -0.534592, 0.118298, -0.082891, 0.173287, -0.041267, 0.294757, 0.074997, 0.413028, 0.010987, -0.227214, -0.367436, -0.161562, 0.33155, -0.087238, 0.064974, -0.218783, 0.015944, -0.068265, 0.151471, -0.161435, 0.04569, -0.172049, -0.44252, -0.395807, -0.041999, -0.032206, -0.365331, 0.418428, 0.020188, -0.323937, -0.205667, -0.162439, -0.101651, -0.048237, 0.043044, 0.140244, -0.956624, -0.118056, 0.001245, -0.083732, 0.771541, 0.560805, 0.520161, -0.107959, -0.053642, 0.200278, -0.107162, 0.136396], [-0.322149, 0.039213, 0.039432, 0.014655, -0.075113, 0.03998, -0.011687, 0.51546, 0.034318, 0.020862, -0.217548, -0.400718, -0.033705, 0.460305, 0.092249, 0.2159, -0.098097, 0.101412, 0.540181, -0.071567, -0.100807, 0.116855, 0.245924, 0.071062, 0.227291, 0.064052, 0.08302, -0.015819, -0.111835, -0.532052, -0.519033, 0.271356, -0.484709, 0.100541, 0.371428, 0.067707, -0.465179, -0.066917, 0.018956, 0.370322, 0.080236, -0.202997, -0.145119, -0.300766, 0.168689, -0.136111, 0.00284, 0.883255, -0.446007, 0.198928, 0.648077, -0.091227, -0.040548, 0.619567, -0.150933, 0.045327, 0.171043, 0.02603, -0.135166, -0.415911, -0.334683, -0.287858, 0.230614, 0.143772], [-0.213474, 0.005353, 0.039329, -0.189712, -0.036971, -0.186365, 0.370956, 0.067018, 0.323765, -0.066619, 0.362688, -0.164039, 0.456293, -0.697043, 0.467557, 0.006409, 0.139179, -0.267427, 0.17299, 0.246043, 0.105058, 0.406057, -0.614047, -0.413094, 0.042762, 0.215552, 0.322074, -0.424457, 0.355843, -0.168592, 0.086642, 0.150839, -0.351489, 0.24575, 0.120487, -0.051735, -0.466387, -0.131606, -0.141687, 0.063119, 0.31838, 0.168793, -0.272703, -0.306558, 0.413007, 0.12756, 0.171096, 0.027599, 0.156912, 0.002475, 0.121616, 0.521363, 0.064391, 0.124561, -0.408949, -0.090155, -0.006825, 0.177057, -0.010873, -0.047374, -0.181316, 0.403874, 0.093847, -0.459751], [-0.517657, -0.285667, -0.311676, -0.416177, -0.004938, 0.301612, 0.508067, 0.301801, -0.235642, 0.326644, -0.052067, -0.007968, -0.088589, 0.137817, 0.202283, -0.199166, 0.376017, 0.112756, 0.188848, 0.046095, -0.408334, -0.027068, 0.070621, 0.269621, 0.097698, -0.098587, 0.145526, -0.19241, 0.012837, -0.207975, -0.340946, 0.549572, 0.103066, 0.386939, 0.231053, 0.145614, -0.632596, -0.388098, -0.070808, -0.126837, 0.082086, -0.266505, -0.050163, 0.228048, 0.7437, -0.336437, 0.884149, 0.132663, 0.136201, 0.159064, -0.313699, 0.327408, -0.354656, -0.274636, 0.184621, -0.304286, 0.10749, -0.111507, 0.172799, 0.392757, 0.018762, 0.342529, -0.101962, 0.013385], [0.086996, -0.168641, 0.657786, 0.461606, 0.152834, -0.167861, 0.121793, 0.130072, -0.305408, 0.148753, -0.243061, -0.132084, 0.429171, -0.041131, -0.317291, 0.457979, -0.417984, 0.340541, 0.032, 0.0552, -0.173233, -0.161245, 0.393714, 0.494666, 0.280886, -0.468245, -0.002912, -0.296455, -0.158994, -0.081143, -0.142506, -0.041207, 0.1285, 0.056469, 0.078108, -0.285373, -0.01016, 0.072981, 0.026781, 0.323743, 0.390632, -0.136218, -0.068183, 0.478235, -0.047499, 0.203752, 0.114339, -0.521669, 0.152297, 0.163794, 0.409148, -0.041926, -0.80065, 0.184323, 0.30493, -0.364922, -0.198795, 0.215531, -0.052904, 0.000657, -0.374228, 0.337543, -0.163771, -0.19711], [-0.391317, 0.274528, -0.362695, 0.198517, 0.418231, 0.387157, 0.014922, 0.230926, -0.162373, -0.093951, -0.23633, 0.306634, -0.108631, -0.193755, 0.069888, -0.30483, -0.244761, -0.011434, -0.351619, -0.090807, 0.121376, -0.168259, -0.237108, 0.533448, -0.008963, 0.146521, 0.141628, 0.126134, -0.237622, 0.418355, -0.196412, -0.662701, -0.142719, 0.318444, -0.230685, -0.258417, 0.188448, -0.078846, 0.121454, 0.13757, 0.422385, 0.368223, 0.177494, 0.166279, -0.131732, 0.254695, -0.124468, -0.007724, 0.246662, 0.285486, -0.048908, 0.337416, -0.359625, 0.054757, 0.759038, -0.168903, -0.104138, 0.205929, 0.363626, -0.056587, 0.257, -0.171867, 0.093968, 0.314225], [0.435646, 0.465662, -0.498408, -0.144792, -0.15488, 0.122497, 0.259848, -0.482961, -0.36986, 0.105154, -0.243572, 0.193879, 0.110919, -0.123958, 0.160459, 0.00382, -0.443549, -0.454375, 0.182132, -0.089444, 0.422379, -0.213603, -0.279167, -0.160237, 0.033054, 0.189762, -0.263748, 0.387537, -0.045029, 0.270182, 0.308903, 0.152188, 0.040938, -0.144176, -0.007911, 0.057464, 0.345314, 0.005075, -0.039975, -0.247608, 0.163177, -0.283243, -0.472284, -0.078183, 0.028702, 0.022017, -0.421693, 0.368653, -0.432111, -0.192206, 0.016565, -0.357546, 0.204564, 0.771816, 0.0782, 0.692482, 0.411612, -0.014736, 0.395693, -0.021918, 0.087467, 0.487942, -0.335799, -0.175339], [0.102394, 0.246276, -0.081664, -0.2052, 0.172372, 0.327313, -0.326739, 0.345055, -0.289127, -0.088189, -0.680348, 0.58272, -0.123194, -0.02435, -0.221638, -0.108282, -0.1925, 0.244687, -0.245971, 0.261596, 0.30948, 0.096025, 0.024281, 0.010327, 0.238463, -0.436016, 0.125029, 0.291462, -0.199865, 0.226438, -0.138001, -0.648722, -0.091749, 0.222381, -0.452836, 0.011283, 0.294291, 0.191253, 0.670204, -0.513764, 0.168438, -0.043871, -0.362738, 0.07678, -0.222831, -0.110173, -0.173668, -0.143691, -0.111177, -0.067496, -0.43027, 0.111163, 0.168273, -0.231822, 0.390002, -0.078474, 0.025364, -0.02795, 0.065359, 0.352529, -0.125935, 0.007459, -0.12092, 0.104835], [0.328229, 0.155189, -0.346291, -0.068435, 0.156545, -0.233307, 0.34314, 0.005759, -0.338577, -0.256056, 0.310533, 0.126625, 0.17632, 0.336205, -0.331539, -0.266087, -0.143036, -0.18057, -0.055502, -0.295344, -0.264606, 0.033849, -0.058104, 0.773165, -0.02797, -0.476133, 0.230993, 0.055813, 0.268601, -0.379677, 0.408475, -0.495417, 0.021785, 0.188234, -0.247855, 0.022425, 0.334588, -0.065956, -0.032092, -0.032947, 0.189077, -0.036304, -0.165819, 0.280178, -0.002475, -0.029315, 0.338861, -0.07313, -0.176097, 0.125207, -0.031016, 0.35531, -0.308414, 0.23806, -0.248827, 0.187067, -0.455269, 0.06815, -0.04711, -0.167252, -0.159246, -0.171594, 0.212468, -0.049731], [0.146056, -0.305958, -0.525839, 0.600839, 0.044859, 0.003949, 0.089293, 0.109292, -0.634572, 0.112137, -0.474123, 0.749831, 0.0587, 0.659168, -0.075708, 0.154395, -0.238689, 0.559018, -0.054066, 0.288506, 0.232389, 0.370422, 0.905062, 0.052852, 0.220045, -0.137104, -0.802194, -0.194479, 0.246849, -0.145539, -0.245384, 0.037655, -0.205211, -0.089948, -0.1155, -0.178909, -0.275363, 0.416533, 0.044808, 0.239334, 0.109377, 0.093573, -0.150326, 0.180917, -0.045425, 0.652767, 0.364545, 0.057463, 0.170791, -0.006193, -0.272753, -0.057759, -0.5379, -0.14579, -0.013392, -0.155642, -0.059334, 0.254623, 0.284287, 0.201909, -0.338954, 0.147281, 0.094736, -0.286236], [0.450952, 0.055664, 0.059136, 0.013254, 0.020761, 0.164545, -0.490805, 0.08698, -0.179032, -0.24893, -0.757105, 0.466187, -0.240819, 0.125445, 0.05798, 0.10599, -0.323081, 0.214776, -0.112235, -0.03657, -0.111173, -0.160586, -0.135977, 0.179171, -0.114751, -0.24243, 0.022561, -0.032328, 0.352847, 0.07675, -0.289148, -0.262195, 0.506709, 0.02271, -0.271331, 0.256686, 0.288214, -0.002978, 0.324328, -0.117492, 0.422868, 0.196174, -0.095252, 0.275754, 0.079342, 0.115691, -0.117147, 0.233936, 0.221801, 0.019026, -0.819938, -0.520732, 0.443015, 0.369414, -0.303057, 0.199319, -0.086373, 0.599248, 0.467308, -0.124225, 0.228019, 0.17971, -0.091551, 0.149663], [0.549353, -0.182942, 0.397401, 0.198528, 0.814944, 0.133559, 0.049714, 0.0521, -0.180865, -0.067846, 0.451795, -0.336387, -0.223248, -0.185256, -0.176019, 0.094257, -0.097214, 0.255762, 0.178128, -0.149769, 0.243113, 0.086007, -0.287875, 0.630319, 0.192873, 0.187175, 0.168667, 0.015938, -0.294271, -0.163247, 0.021791, -0.131049, -0.09448, 0.150676, -0.100738, -0.192466, -0.379949, -0.253664, 0.369115, 0.203188, -0.424213, 0.142841, -0.252089, 0.369813, -0.250711, 0.132062, -0.376773, -0.082089, 0.098626, 0.224951, -0.195309, 0.832077, -0.333905, 0.086402, 0.24208, -0.018311, -0.577802, -0.12492, 0.578207, -0.090283, 0.051407, 0.114008, 0.36226, 0.139264], [0.292066, 0.40074, 0.002414, 0.214985, 0.195959, -0.17211, -0.137244, -0.095763, -0.13032, 0.398657, -0.125664, 0.098817, 0.04547, 0.263946, 0.250697, -0.083118, -0.05567, 0.149013, -0.307875, 0.362679, -0.110162, -0.002633, 0.175688, 0.649957, 0.386941, -0.703357, -0.429602, -0.088695, 0.11323, -0.337824, -0.228787, -0.427403, 0.181485, -0.154022, -0.035264, -0.089596, -0.151822, 0.333536, -0.080874, -0.011848, 0.507206, 0.190263, -0.151311, 0.583105, -0.078295, 0.682133, 0.508276, 0.230741, -0.237611, -0.110803, -0.232339, -0.133344, -0.593229, -0.157441, 0.127201, -0.128917, 0.406915, 0.334288, -0.123583, 0.023019, -0.062085, 0.091859, 0.021462, -0.291858], [-0.349792, 0.352866, -0.09697, 0.040251, 0.086083, 0.173195, 0.399992, -0.279773, -0.094941, 0.070251, -0.193184, -0.285359, 0.348412, -0.303344, -0.046135, 0.25457, 0.188931, -0.019639, 0.098257, -0.1369, -0.010612, 0.263344, -0.125914, 0.220138, -0.074324, 0.26722, -0.613507, 0.194374, 0.116393, 0.100138, 0.527733, 0.240513, -0.070638, 0.269774, 0.21275, 0.190332, 0.094103, 0.08014, -0.334646, -0.323024, -0.220122, 0.047548, 0.298337, 0.297948, 0.637994, 0.011059, -0.175489, -0.008715, -0.164008, -0.202036, -0.165201, 0.070443, -0.063689, 0.330071, -0.187999, 0.001873, 0.265863, 0.142905, -0.707865, -0.318581, -0.238181, 0.235411, -0.018835, -0.104663], [0.38567, -0.275755, -0.246908, 0.144611, -0.414852, -0.21775, -0.268959, 0.145119, -0.52137, 0.501161, -0.022626, 0.133285, 0.314746, -0.110916, -0.15886, -0.045944, 0.302199, 0.201488, -0.081147, -0.530141, -0.195619, 0.314014, -0.078512, -0.715922, 0.27472, 0.201649, -0.41259, -0.19716, -0.305477, -0.138344, 0.285359, -0.610959, 0.041391, 0.001847, -0.451346, -0.284652, -0.220663, 0.386496, 0.082467, -0.260353, 0.239843, -0.348868, 0.374299, 0.201822, -0.105549, 0.370176, 0.368626, -0.015248, 0.099492, 0.026332, -0.382066, -0.272411, -0.173713, -0.400433, -0.433738, 0.31101, 0.302212, 0.001698, -0.01243, 0.183686, -0.271146, 0.056222, -0.433265, -0.175907], [-0.361781, 0.347136, 0.042947, -0.497989, -0.173015, 0.228922, -0.255904, 0.054593, 0.296699, -0.095487, -0.099297, -0.051154, -0.449436, -0.022818, 0.580066, 0.133146, 0.636546, -0.514718, 0.119787, -0.324452, 0.331594, -0.046436, -0.319061, -0.476572, -0.290337, -0.04511, 0.322807, 0.695299, -0.040199, 0.263524, 0.383628, -0.195854, 0.340425, -0.7732, -0.012054, 0.443547, 0.103007, 0.19664, -0.12916, 0.283475, 0.188098, -0.103303, -0.082096, 0.061371, -0.08877, -0.53152, 0.174452, 0.203947, 0.056439, 0.38955, 0.062667, -0.290571, 0.926647, -0.108589, -0.329532, -0.344851, -0.033234, -0.162812, 0.025075, -0.07643, 0.284128, 0.223479, 0.085591, 0.185698], [-0.128742, 0.324619, 0.11853, 0.217649, -0.344122, -0.038985, 0.192724, 0.001462, 0.202597, 0.179026, -0.298864, 0.160863, -0.215862, -0.221601, -0.029016, 0.04615, -0.060774, -0.27611, -0.104262, 0.263425, 0.019048, -0.010096, 0.059421, 0.023865, -0.698369, -0.122983, -0.181337, -0.29118, 0.153138, -0.148172, -0.002315, -0.002857, 0.086154, 0.029168, -0.138913, 0.141524, 0.163566, 0.928716, 0.004749, 0.142798, -0.130646, -0.2434, 0.44717, -0.155585, -0.287423, -0.552064, -0.084857, 0.435341, 0.331132, -0.418032, 0.392148, 0.127724, 0.274445, -0.241011, -0.162963, -0.078954, 0.268971, 0.134315, 0.03772, 0.100648, 0.177562, 0.119032, -0.125488, 0.146587], [-0.216606, 0.014149, 0.182111, -0.247194, -0.221816, -0.543287, -0.127213, 0.202168, -0.020105, -0.21533, -0.266763, -0.021762, -0.405607, -0.094405, 0.294891, -0.754093, -0.088597, -0.224528, 0.44671, -0.016726, 0.120445, -0.246357, 0.198894, -0.270329, -0.086331, -0.368598, 0.439089, -0.258056, -0.270712, 0.323584, -0.050107, 0.14905, 0.010463, -0.274721, -0.141357, 0.177371, -0.113778, 0.342438, -0.060136, -0.322955, 0.129492, 0.043352, 0.622332, 0.295787, 0.185463, -0.321997, 0.486967, 0.272488, 0.138019, 0.082937, -0.14364, 0.424832, 0.743, -0.28275, 0.049936, -0.016192, -0.042454, -0.124176, -0.147962, 0.112642, 0.466337, 0.328385, 0.094604, 0.334239], [-0.095932, 0.306209, 0.177936, -0.193719, -0.184587, -0.36654, 0.398455, 0.056049, 0.58099, -0.075212, -0.299318, 0.15893, 0.06679, -0.3602, 0.183598, 0.077263, -0.477368, -0.063829, 0.057803, -0.062418, 0.099403, -0.050621, 0.316461, -0.53059, -0.215168, 0.398959, -0.234911, 0.304166, -0.127913, 0.201233, 0.289355, -0.171684, 0.136064, 0.229056, 0.009581, 0.038792, -0.296024, -0.027454, 0.014959, 0.068693, -0.677422, 0.095265, -0.186775, 0.277158, 0.063598, -0.308153, -0.379937, 0.102252, 0.146158, -0.596251, -0.332471, -0.636987, 0.224584, 0.05793, 0.082619, -0.141942, 0.088213, 0.450429, 0.101437, -0.054195, 0.112171, -0.369121, -0.513576, -0.158528], [0.69014, -0.174256, 0.128591, 0.011716, -0.08322, 0.520405, -0.311208, 0.340292, -0.06968, -0.392683, -0.513577, 0.453453, 0.023369, 0.187021, -0.035022, -0.388759, -0.327426, -0.159169, 0.148079, 0.210227, 0.529063, 0.222904, 0.19107, 0.159161, 0.102492, -0.338105, -0.155871, 0.249364, -0.207881, -0.045127, -0.63983, -0.329461, 0.032725, 0.186735, 0.013083, -0.029852, 0.033799, 0.099064, 0.427481, 0.180207, 0.35586, -0.06268, 0.372029, 0.001186, 0.172677, 0.199135, 0.232006, -0.179431, 0.061558, -0.207463, -0.161482, -0.175109, -0.592381, -0.197045, 0.312145, 0.114554, 0.112629, 0.266452, 0.178198, -0.087018, 0.093808, 0.033912, 0.02009, 0.363065], [0.123612, -0.449961, -0.449589, -0.227413, 0.157599, 0.024917, -0.462087, 0.391769, 0.132524, 0.300512, -0.351775, 0.464769, -0.358202, -0.086324, 0.016293, -0.11908, 0.037591, -0.046602, 0.211175, 0.142083, 0.185695, -0.271699, 0.03828, 0.374465, -0.085689, -0.218772, -0.238598, 0.206032, 0.354321, 0.350972, -0.407901, -0.208809, -0.270298, 0.023792, -0.038425, 0.253624, -0.096413, -0.062689, 0.621313, 0.012358, 0.478474, -0.068149, -0.027922, 0.285964, -0.600943, 0.151026, 0.381681, 0.026596, -0.041374, 0.111677, -0.234089, -0.005531, 0.280684, 0.061843, 0.079317, -0.130579, 0.062901, 0.284384, 0.310883, -0.411557, -0.052855, -0.156273, 0.089733, -0.074677], [-0.144857, -0.496931, -0.041916, -0.195892, 0.283475, 0.188814, 0.436678, -0.024991, -0.451698, -0.241027, 0.22502, -0.643764, -0.279595, 0.03953, -0.229613, -0.295167, 0.321541, 0.190426, 0.370074, -0.419537, -0.030913, 0.161274, 0.193077, 0.241821, 0.076213, -0.194422, 0.39638, -0.027003, -0.156792, -0.033481, 0.108429, 0.315185, -0.113645, -0.149619, 0.149372, -0.233912, -0.513212, 0.496705, -0.142955, -0.228276, 0.306727, 0.106326, 0.273351, -0.35571, -0.150163, -0.247137, 0.081553, -0.120281, -0.096899, 0.42202, -0.512116, 0.111155, 0.345526, -0.774935, 0.402976, -0.124817, -0.106063, -0.094488, 0.144846, -0.272635, -0.100423, 0.103338, -0.210105, -0.302735], [-0.071908, 0.155153, -0.202373, 0.057179, -0.228276, 0.428324, -0.17939, -0.210181, 0.339442, -0.366688, -0.038191, -0.408524, 0.322064, -0.374027, 0.320279, 0.169461, -0.044569, 0.166989, 0.110622, -0.169044, -0.288674, -0.639782, -0.287335, -0.35806, -0.193417, 0.453638, 0.136846, 0.432411, -0.087277, -0.057722, 0.402579, 0.032316, -0.239873, -0.239993, -0.208412, -0.125499, 0.207272, -0.418472, 0.219479, 0.189026, -0.48275, 0.251758, -0.544295, -0.298192, 0.176656, -0.787745, -0.51848, -0.157305, -0.029674, 0.007299, -0.307109, -0.137305, 0.304365, 0.019163, -0.023221, 0.035058, 0.32822, -0.217053, -0.239612, -0.473055, 0.391267, 0.259818, -0.282107, 0.104838], [-0.018699, 0.614974, -0.160792, 0.631546, -0.428031, 0.223161, -0.612738, 0.110364, 0.290395, 0.061591, -0.092658, 0.182376, 0.041199, -0.047728, -0.106749, 0.340894, -0.776029, 0.097143, -0.053223, 0.531781, 0.222314, -0.099982, 0.074742, -0.237466, -0.141204, 0.194912, -0.201797, 0.17347, -0.057007, 0.037675, -0.068193, 0.113351, 0.217775, 0.418101, 0.193023, -0.206301, 0.185879, -0.228471, -0.03056, 0.293673, -0.560148, -0.309, -0.176226, -0.16951, -0.503533, 0.127519, -0.243708, -0.269576, -0.185756, -0.118358, -0.178057, -0.083152, 0.006724, 0.165289, -0.25972, 0.122002, -0.135238, 0.866484, 0.084302, 0.088677, 0.137298, -0.012503, -0.262591, 0.058871], [-0.012494, -0.281284, -0.124039, -0.117849, 0.071566, -0.349094, 0.127467, -0.009945, 0.457348, -0.010507, 0.315509, -1.213331, 0.410775, -0.151306, 0.098234, 0.090985, 0.395701, -0.187501, -0.048796, -0.380982, -0.437631, -0.275704, -0.305507, 0.156763, 0.094825, 0.142743, 0.395028, -0.186649, -0.183133, -0.216484, 0.302717, 0.14907, -0.041397, -0.04971, 0.404871, 0.427317, -0.084305, -0.343255, -0.631645, -0.064755, -0.609129, -0.331859, -0.039754, -0.400319, 0.298559, -0.265972, 0.050844, 0.143256, -0.088053, 0.738064, 0.08494, 0.363483, -0.082322, -0.260682, 0.137, -0.35395, -0.28432, -0.792115, 0.182421, -0.220791, -0.185245, -0.089705, 0.708695, -0.567037], [-0.443653, 0.033356, 0.087589, -0.249125, -0.118982, 0.125627, 0.158434, -0.023361, -0.017952, 0.168756, 0.071237, -0.096501, 0.091718, -0.021694, 0.356532, 0.268996, -0.059192, 0.072431, 0.603561, 0.013334, -0.418952, 0.321704, 0.459154, 0.223083, 0.034092, 0.457642, -0.078392, -0.098902, -0.750212, -0.223908, -0.245414, 0.641259, -0.091073, 0.165133, 0.275438, 0.730813, 0.339243, -0.206351, 0.236014, 0.282485, -0.029247, 0.360498, -0.387162, -0.318596, 0.335339, 0.059846, 0.027261, -0.012265, -0.151552, -0.416903, 0.364597, 0.009313, -0.257563, -0.087499, 0.229567, -0.134693, 0.175542, 0.6286, 0.209721, -0.277815, 0.01208, 0.565588, 0.105325, -0.058532], [-0.020864, 0.505775, -0.124074, 0.076271, 0.278203, 0.183073, -0.466104, -0.122187, 0.494376, -0.107475, -0.582937, 0.427444, -0.383653, 0.078016, 0.01131, -0.115098, -0.528125, -0.173076, 0.049622, -0.306188, -0.274736, 0.034321, 0.595114, -0.267231, 0.129231, 0.04208, 0.163818, 0.128792, 0.117076, 0.053061, -0.251192, 0.383632, -0.078551, -0.284128, -0.019044, 0.538699, -0.21343, 0.237681, -0.109814, 0.067803, 0.125116, -0.241148, 0.43265, 0.386242, 0.089081, -0.183653, 0.324768, 0.191299, 0.339774, -0.518254, 0.105431, -0.177329, 0.572839, -0.41824, 0.063484, -0.076438, -0.021358, 0.07697, 0.139698, 0.027598, -0.22983, 0.111383, -0.474108, 0.032693], [0.254077, 0.168893, -0.370565, -0.056636, 0.341334, 0.149841, 0.070625, 0.165881, 0.01918, 0.272825, -0.340186, 0.448341, 0.222056, -0.336085, -0.024242, 0.24494, -0.3046, -0.111729, -0.089105, 0.112382, 0.207427, 0.341756, 0.213896, -0.359685, -0.230091, -0.15821, 0.003043, 0.474326, 0.240251, -0.082006, -0.109425, 0.120365, 0.444148, -0.337028, -0.178769, 0.079676, 0.513343, 0.536079, -0.089108, -0.142584, 0.046009, 0.187456, -0.253622, 0.266085, -0.142452, 0.039503, -0.05123, 0.027991, -0.127539, -0.151185, -0.15164, 0.000462, 0.404704, 0.288374, 0.16987, 0.505293, 0.225738, 0.287084, 0.096489, -0.205262, 0.850099, 0.263666, -0.565367, 0.173112], [-0.189808, 0.151433, 0.178544, 0.10424, 0.383391, -0.261371, 0.284521, -0.246555, 0.249261, 0.051124, 0.190505, -0.62188, 0.346082, 0.178884, -0.1066, 0.350787, 0.836384, -0.017623, 0.37556, -0.048195, -0.42572, 0.123458, -0.180645, 0.398148, -0.275696, 0.38868, 0.540845, 0.002203, -0.430778, -0.396796, 0.511788, 0.134392, 0.035887, -0.115533, 0.030554, -0.283224, -0.103882, -1.000499, -0.130569, 0.005746, -0.399829, -0.258682, 0.08893, -0.588972, 0.225227, -0.036634, 0.32481, -0.118854, -0.245424, 0.156175, 0.086133, -0.024584, 0.110474, 0.152953, -0.09319, 0.019236, -0.191915, -0.545901, 0.189463, -0.29988, 0.145297, 0.063894, 0.586281, -0.505332], [-0.414705, -0.204463, 0.437415, -0.267384, -0.504524, 0.074945, 0.233271, -0.110593, 0.61306, 0.280084, -0.185385, 0.132494, 0.413639, -0.005729, 0.021419, -0.244363, 0.111266, -0.235244, 0.17839, -0.057564, -0.116562, 0.252741, 0.461395, 0.411341, 0.524922, 0.316603, 0.213484, -0.281675, -0.448572, -0.076974, -0.555832, 0.343828, -0.478104, 0.303805, 0.091711, 0.110609, -0.663799, 0.091026, -0.112017, 0.431801, -0.099768, 0.232732, 0.100094, 0.219718, 0.201406, -0.140077, -0.163417, -0.297413, 0.347943, -0.189376, -0.307605, 0.188006, 0.177476, -0.087143, 0.006797, -0.308651, 0.031507, 0.449344, -0.258293, 0.062417, -0.084521, 0.336902, -0.10153, 0.061027], [0.216162, 0.6761, -0.576221, -0.283367, -0.321772, -0.070544, -0.009293, -0.140393, -0.286009, 0.028443, 0.236212, -0.197926, -0.088992, 0.015444, 0.156763, 0.453703, 0.465453, -0.231971, 0.358354, -0.151433, 0.118522, 0.046797, -0.355786, -0.223392, 0.223845, 0.299216, 0.044486, 0.120589, 0.414234, 0.334333, 0.25832, -0.147497, 0.634449, -0.556105, -0.319916, 0.186348, 0.379156, -0.232902, -0.24941, -0.222791, -0.320245, -0.134411, -0.11129, -0.138518, 0.01828, -0.515159, -0.192037, 0.167021, -0.127387, -0.199044, 0.211027, -0.449555, 0.582741, 0.069095, 0.078565, 0.005588, 0.02132, -0.709899, -0.097858, -0.811533, 0.36002, 0.058509, 0.194161, -0.394654], [-0.162064, 0.662545, -0.081094, 0.272724, 0.172304, 0.028153, -0.163111, -0.409802, -0.080353, 0.219079, -0.209314, -0.501527, 0.087811, -0.216671, 0.246933, 0.000716, -0.055349, -0.569344, 0.133902, -0.157141, 0.204564, 0.381805, 0.211258, 0.478729, -0.336069, 0.107814, 0.306814, -0.199971, 0.327889, 0.012383, 0.025003, 0.005605, -0.012021, 0.141336, 0.512703, -0.033358, 0.578605, -0.225024, 0.388838, 0.200491, -0.444455, 0.100789, -0.52574, 0.366757, 0.087936, -0.103141, -0.254673, 0.389633, -0.091761, 0.175361, 0.522751, -0.264805, -0.183476, 0.293821, 0.016575, -0.106372, 0.199881, 0.072554, -0.065503, -0.234429, 0.154311, -0.103376, 0.064299, -0.162023], [-0.306317, -0.190505, -0.076438, 0.118448, 0.313499, -0.184957, 0.036156, 0.043862, -0.087677, -0.337302, 0.073652, -0.076865, 0.175557, 0.172641, -0.008726, 0.257936, -0.108846, 0.01318, 0.123021, -0.611006, 0.177203, -0.136084, -0.2562, 1.05213, 0.050362, 0.24004, 0.611662, 0.249063, -0.212231, -0.078171, -0.403588, 0.426183, 0.189072, 0.198793, 0.460899, -0.242961, -0.323463, 0.240137, 0.503476, -0.141575, -0.153826, 0.298931, -0.233717, -0.032322, -0.162374, 0.346289, 0.01228, 0.230703, -0.002518, -0.041496, 0.044681, 0.316158, -0.196209, -0.206426, 0.173274, -0.43528, -0.207989, -0.430546, 0.158154, -0.23758, -0.060839, -0.179767, 0.331893, -0.011695], [0.162768, 0.372374, 0.396099, -0.071613, 0.36396, -0.103928, -0.194707, 0.099075, -0.059695, -0.347509, 0.166722, 0.135661, 0.026596, -0.069886, -0.230016, 0.024667, 0.23275, -0.129356, 0.12088, -0.117483, -0.114285, -0.364331, 0.340026, -0.204986, 0.209749, -0.056807, -0.100945, 0.211561, -0.139966, -0.136064, -0.25253, 0.596581, 0.261917, 0.264786, -0.360707, -0.77825, 0.54053, 0.293015, 0.052667, 0.145008, -0.115317, 0.033176, -0.020295, 0.154744, -0.379166, -0.30142, -0.427339, 0.149082, 0.041242, 0.249694, -0.12038, 0.071435, -0.40234, -0.066566, 0.173629, -0.058691, -0.249534, -0.139474, 0.125074, 0.213217, 0.083077, 0.021836, 0.309577, -0.320106], [0.072315, -0.316396, 0.095562, -0.026179, -0.157129, 0.057472, -0.337235, 0.101021, 0.295078, -0.081302, 0.627859, -0.015559, 0.272371, 0.314203, 0.397763, 0.552223, -0.038536, 0.097116, 0.151873, 0.171223, -0.113344, 0.178366, -0.339346, 0.10518, 0.01189, -0.164391, 0.061814, -0.447616, -0.297785, 0.214323, -0.189456, 0.013648, -0.64125, 0.080226, 0.127059, -0.159445, -0.010917, 0.106925, -0.022384, 0.396627, -0.091187, 0.073079, 0.09811, 0.334054, 0.243084, 0.048847, -0.097928, -0.295349, -0.29503, -0.245134, -0.145015, -0.200452, -0.17374, 0.565597, -0.005394, 0.025104, -0.381624, -0.158293, 0.109096, 0.044788, -0.31232, -0.218544, -0.094535, -0.373569], [0.074071, 0.312331, 0.345098, -0.106756, -0.022373, 0.193784, 0.066873, -0.255886, 0.424268, -0.047502, -0.052903, -0.261881, 0.21963, 0.442023, 0.01431, 0.319977, -0.234793, 0.073342, 0.00015, -0.038443, -0.376523, -0.037579, 0.053937, 0.34915, -0.241431, 0.006197, -0.190045, -0.039777, -0.167062, 0.175752, -0.036188, -0.109924, -0.206534, 0.054687, 0.158377, -0.436772, 0.354187, -0.305395, -0.225822, -0.182878, -0.723837, -0.396487, -0.390343, 0.037859, -0.149096, 0.291574, 0.089028, 0.178966, 0.523724, 0.162411, 0.127485, 0.040524, -0.042401, 0.021925, -0.102603, -0.456401, 0.262806, 0.225052, -0.068955, -0.442391, -0.381018, -0.57712, -0.054475, 0.181649], [0.192606, 0.158065, -0.287826, -0.331103, -0.247502, -0.462882, 0.052471, -0.300904, 0.398597, -0.239063, 0.104184, -0.385421, -0.149609, -0.265594, -0.057521, 0.400949, 0.704738, -0.403618, -0.146292, -0.077557, -0.203953, -0.161991, -0.432196, -0.67097, -0.043008, 0.139758, 0.433519, 0.183414, -0.222055, 0.087251, 0.37686, 0.102619, 0.255775, -0.57695, 0.273257, -0.437026, 0.098102, -0.084537, 0.299206, 0.068124, -0.112841, 0.042558, 0.284026, -0.049954, 0.202205, -0.548733, -0.134109, 0.16783, -0.025183, 0.06721, -0.107452, 0.083894, 0.837669, -0.196386, 0.267756, 0.191663, -0.480484, -0.485683, -0.03136, -0.144569, -0.18828, -0.011212, 0.466883, 0.314912], [-0.005692, -0.248825, -0.434541, 0.381438, -0.266937, -0.21408, -0.031186, -0.004714, 0.412631, 0.106547, -0.135538, -0.053976, -0.496978, 0.646228, -0.132859, 0.001447, -0.096201, 0.0816, -0.105618, -0.268333, -0.142302, 0.442974, 0.218956, -0.295691, -0.118497, -0.471996, -0.427426, 0.374818, 0.511928, 0.166716, -0.02924, -0.172274, 0.143354, 0.419131, -0.297661, 0.093376, -0.220669, -0.033279, -0.203088, -0.406212, 0.280395, -0.155922, -0.028565, 0.301997, 0.131631, 0.22112, 0.401119, 0.113745, 0.116032, -0.13053, -0.172322, -0.244243, 0.290758, 0.014747, 0.239477, -0.144598, 0.321893, -0.213077, 0.081274, 0.111166, -0.06048, 0.441907, 0.084794, -0.209742], [0.352262, -0.013732, 0.365662, -0.244397, -0.278344, 0.10211, -0.486693, -0.37904, -0.021284, -0.124214, -0.108256, 0.02464, -0.082706, -0.072837, -0.099725, 0.037801, -0.069544, 0.225827, 0.072409, -0.334451, 0.109874, -0.051658, -0.391191, 0.010488, -0.390224, 0.371292, -0.256775, 0.117093, -0.132784, -0.270385, 0.168456, 0.020632, 0.066189, -0.409836, -0.366837, -0.370574, 0.214543, -0.252996, -0.044677, -0.261905, -0.617447, 0.001961, -0.254775, -0.319872, -0.478355, -0.02746, -0.168324, -0.130769, -0.120169, -0.154545, 0.080051, -0.016059, -0.437598, 0.282589, 0.62174, 0.365399, -0.970318, 0.073724, -0.107194, -0.117359, -0.092419, -0.337081, -0.052541, -0.211534], [-0.036562, 0.030215, -0.266828, 0.09538, -0.275855, 0.121157, -0.242027, 0.175645, 0.553774, 0.460887, -0.175434, 0.274666, -0.211933, 0.120167, 0.479925, -0.026945, -0.534987, -0.224691, -0.142439, 0.261749, 0.083096, 0.081019, 0.019801, -0.052113, 0.245416, -0.174375, -0.39046, 0.068027, 0.214218, -0.433099, 0.537714, -0.039724, 0.138253, -0.053059, 0.090457, 0.01261, 0.54163, -0.133883, -0.223605, -0.427158, 0.339289, -0.000375, 0.340996, 0.228476, 0.001136, -0.288494, 0.053967, 0.164335, 0.413343, 0.022363, 0.04071, -0.687666, 0.700997, -0.046939, -0.151465, -0.362578, 0.366643, 0.057703, -0.2425, -0.012767, -0.091445, -0.05215, -0.353995, 0.157748], [0.073115, -0.178972, 0.111392, -0.197521, 0.317327, -0.372721, 0.338928, 0.049974, -0.418836, -0.287344, 0.176225, -0.729918, 0.000909, 0.064246, -0.178576, 0.429148, 0.615894, -0.330917, 0.235058, -0.479248, 0.021467, -0.305961, -0.255798, 0.182182, 0.050787, 0.10284, -0.044308, -0.37464, -0.143852, -0.51445, -0.11823, -0.132559, -0.343713, 0.158026, 0.263861, -0.149113, -0.145963, -0.353558, -0.432182, 0.115251, -0.022779, 0.030026, 0.260289, -0.392536, 0.106233, 0.088512, 0.034027, -0.212223, -0.186791, 0.320836, 0.453815, 0.566264, 0.116687, -0.678507, 0.002628, -0.103878, -0.392855, -0.459891, -0.086833, 0.40043, 0.266672, 0.032835, 0.197382, -0.07918], [0.079301, 0.084297, -0.408178, -0.193865, 0.293012, -0.263704, -0.106113, 0.111538, -0.184487, -0.163944, -0.26204, 0.004748, -0.480902, -0.154461, 0.292963, 0.038667, 0.176252, 0.007627, -0.06857, -0.566584, -0.022842, -0.037487, 0.153347, 0.428405, -0.143756, -0.634769, 0.170903, 0.166895, -0.076194, -0.201767, 0.335653, -0.111811, 0.36722, -0.088577, -0.515272, -0.044718, -0.055976, -0.371095, -0.032229, -0.043135, -0.219993, -0.350025, 0.08804, -0.234852, 0.03806, 0.328874, -0.362984, -0.320945, 0.354472, 0.318176, -0.337931, -0.040221, 0.073497, -0.173245, 0.142012, 0.385932, 0.203166, -0.300366, -0.028686, -0.207063, -0.144756, 0.090293, -0.240617, 0.097881], [-0.131186, -0.165636, -0.033787, -0.219853, 0.032796, -0.127496, -0.253175, -0.012704, 0.10905, 0.032688, 0.052047, -0.17551, 0.319678, 0.560503, 0.212782, -0.114777, 0.129966, -0.490543, -0.267798, 0.048851, -0.317008, -0.11682, 0.034373, -0.295151, 0.392719, -0.831043, 0.236467, 0.003759, 0.320733, 0.223086, 0.291492, -0.503511, 0.297282, 0.057587, -0.076218, 0.130703, -0.418912, -0.271041, 0.117253, -0.410351, 0.077249, 0.114203, 0.7494, 0.304228, -0.178468, 0.037827, -0.061197, 0.304122, 0.495854, 0.105514, -0.076413, 0.231073, 0.183112, -0.150466, 0.001343, 0.102776, -0.423207, -0.238558, 0.073872, 0.139602, -0.027516, 0.347947, -0.063974, -0.057541], [-0.096995, -0.394053, 0.006591, 0.382619, 0.143178, -0.256238, 0.078919, -0.380596, 0.065138, -0.20187, 0.305178, -0.448674, 0.003884, -0.089853, -0.149246, 0.136053, 0.518099, -0.096683, 0.310712, 0.234341, -0.566953, -0.017898, -0.21481, 0.112166, 0.042217, 0.070607, 0.108277, -0.024427, -0.525737, -0.249911, -0.234734, 0.195141, 0.095396, 0.205699, 0.549013, -0.216936, -0.326389, -0.040667, -0.246417, 0.094171, -0.449613, 0.390087, -0.014556, -0.32783, 0.131794, -0.169506, 0.014221, -0.16133, 0.170997, 0.392866, 0.427642, 0.557951, -0.152022, 0.187297, -0.289193, -0.612903, -0.107687, -0.258058, -0.125267, 0.129205, -0.301017, -0.487462, -0.042219, -0.44643], [-0.078998, -0.047707, 0.22356, 0.042799, -0.163812, 0.133481, 0.098525, 0.098148, 0.113535, 0.342424, -0.087357, 0.251189, -0.442589, 0.033074, 0.34407, 0.458875, 0.033567, -0.305219, 0.032844, -0.122709, -0.076775, -0.131393, 0.31513, -0.45655, 0.211311, -0.0519, -0.140379, 0.069405, -0.086599, 0.111049, -0.182011, -0.043396, 0.019137, -0.021395, 0.094354, 0.16259, 0.083174, 0.223407, -0.199892, -0.179622, 0.09979, 0.232789, -0.092325, -0.042939, 0.108478, -0.237525, 0.529499, -0.011719, -0.013332, 0.006532, -0.374827, -0.699503, 0.320072, -0.403127, -0.304174, 0.627533, -0.054146, -0.338421, -0.27792, -0.626119, -0.274339, 0.47122, -0.252728, -0.003786], [-0.339345, 0.054562, -0.554536, 0.528831, 0.463507, -0.097313, 0.152559, -0.10382, 0.184033, 0.155805, -0.404141, -0.115213, -0.089019, 0.198329, 0.040661, -0.295374, 0.38616, -0.314212, -0.540262, -0.02945, 0.095718, -0.137626, -0.632316, 0.218637, 0.303315, -0.305582, 0.057409, -0.09895, 0.242134, 0.262874, 0.574342, 0.159341, -0.038736, 0.241957, -0.391751, 0.167564, 0.037554, -0.010412, 0.026862, -0.632189, -0.250187, 0.043626, -0.499893, 0.247619, 0.023197, 0.075332, 0.084982, -0.314774, 0.239378, -0.309958, -0.345947, -0.036671, -0.283142, 0.058765, 0.204232, -0.69228, 0.173027, 0.385888, 0.294161, -0.420921, 0.17769, -0.462113, -0.139774, 0.304965], [-0.182435, -0.463226, -0.189643, -0.258933, -0.246452, -0.085009, 0.415831, -0.180203, 0.061592, -0.27091, -0.296519, 0.029037, -0.076858, -0.133597, 0.204615, 0.209018, 0.081271, 0.528001, 0.010458, 0.254669, -0.008404, 0.424135, -0.206837, -0.291726, 0.332591, 0.122075, -0.205974, -0.047324, -0.496697, -0.000423, -0.198541, 0.26216, -0.133014, -0.132432, -0.333442, 0.241617, 0.148148, -0.225379, 0.069174, 0.198487, 0.357368, -0.171276, 0.028384, 0.054864, -0.127739, -0.131485, 0.449256, 0.278203, -0.173807, 0.114554, -0.297015, -0.412575, -0.136489, -0.363453, -0.765573, 0.46503, 0.213678, 0.092966, -0.325244, -0.04449, 0.322086, 0.486273, -0.455484, -0.199496], [0.114988, -0.355886, -0.264074, -0.199684, 0.051026, 0.240822, -0.437718, 0.112705, 0.049757, -0.311403, 0.199278, 0.342229, -0.059904, 0.175023, -0.447607, 0.015145, 0.33501, 0.585202, 0.142809, 0.049375, -0.063504, 0.20948, 0.332273, 0.142403, 0.194198, 0.235412, -0.501102, -0.624923, -0.503595, -0.035229, -0.056266, -0.031079, 0.01485, 0.171001, 0.280511, -0.138283, -0.223495, 0.038878, -0.026157, 0.501023, -0.064423, -0.259565, -0.575302, -0.537101, -0.006178, 0.093309, 0.495461, 0.299878, -0.275311, -0.034409, 0.176086, -0.539255, -0.229555, 0.333385, -0.00722, -0.042197, -0.180188, -0.033614, -0.193386, -0.189585, 0.022746, 0.326075, -0.012482, -0.083192], [0.152616, 0.418307, -0.354707, 0.079357, -0.275299, 0.156109, -0.076856, -0.179781, 0.230278, 0.392332, -0.209145, -0.0742, 0.117327, -0.589173, 0.415073, 0.421906, 0.027472, 0.267784, 0.158543, -0.103316, 0.196254, -0.021884, 0.727837, 0.11182, 0.369906, -0.184369, -0.332753, 0.343977, 0.279153, 0.455905, 0.236317, 0.005567, -0.030503, -0.107699, -0.130126, -0.029208, 0.098886, 0.467785, -0.265729, -0.665831, 0.502242, 0.205983, -0.286204, 0.155991, 0.099907, -0.167076, -0.179541, -0.079998, 0.050017, -0.177767, 0.207234, -0.42257, -0.262358, -0.235631, -0.268488, 0.260556, 0.152074, 0.085671, 0.316543, 0.128963, 0.124704, 0.105985, -0.529786, 0.239192], [0.258757, 0.181314, 0.071228, 0.590817, -0.327458, 0.167779, -0.283725, 0.137534, 0.198045, -0.25384, -0.213939, 0.604873, 0.161767, -0.079277, -0.180263, 0.13179, -0.093668, -0.207215, 0.220219, 0.121772, 0.117985, -0.045329, 0.089535, -0.212394, -0.069121, -0.004263, -0.012117, -0.05159, 0.032988, 0.248245, 0.211138, -0.116827, 0.297544, -0.15604, -0.162061, 0.170591, 0.118818, 0.19552, -0.012415, -0.206357, 0.356504, 0.073165, -0.360295, 0.760018, -0.42885, 0.179177, -0.614183, 0.199368, 0.332835, -0.427028, -0.443526, -0.116008, 0.11829, -0.072981, 0.497105, 0.556481, 0.069011, 0.213386, -0.031584, 0.366102, -0.031257, -0.365732, -0.31561, 0.091503], [-0.157159, 0.383019, 0.28566, 0.184829, -0.125087, -0.448203, 0.46176, -0.431728, -0.233545, -0.010295, 0.513765, -0.205087, 0.457329, -0.302653, 0.019271, 0.128563, 0.203324, -0.23207, -0.200064, 0.007408, -0.419382, 0.216575, 0.003266, 0.066855, -0.22317, 0.11084, -0.084252, 0.097754, -0.219102, -0.362721, 0.113901, 0.51928, -0.389274, 0.209999, 0.221459, 0.054551, -0.483958, -0.103477, -0.190244, -0.405506, -0.032139, -0.20041, -0.06975, 0.149196, 0.490292, -0.061401, -0.341761, -0.097132, -0.005348, 0.529272, 0.19472, 0.062463, -0.061924, -0.267254, -0.037232, -0.271776, -0.052962, -0.127648, -0.047473, -0.343644, 0.269617, 0.108899, -0.158429, -0.087898], [-0.417311, -0.080963, 0.025022, 0.271408, 0.15725, -0.2974, 0.176375, -0.50159, 0.350996, 0.032237, 0.737619, -0.577313, 0.295845, -0.232414, 0.132919, 0.430294, 0.037943, -0.773773, 0.062524, -0.253301, -0.202337, 0.123461, -0.155717, -0.055335, -0.047767, 0.046958, -0.315783, -0.224862, 0.045993, 0.175116, 0.25645, 0.024174, 0.258297, -0.369128, -0.294229, -0.095047, -0.217303, -0.24135, -0.036249, -0.166795, -0.142551, -0.204899, -0.054593, -0.445574, 0.265488, -0.380938, 0.075702, 0.128052, -0.107739, 0.193698, -0.154191, 0.288738, 0.170418, 0.019903, -0.187778, -0.420259, -0.179137, -0.363649, -0.253305, -0.103904, -0.102382, -0.485704, 0.1619, -0.147391], [0.154962, -0.264171, -0.100518, -0.229944, 0.242611, 0.179598, -0.025602, 0.148555, -0.237959, -0.097036, -0.220591, 0.089083, -0.096946, -0.022968, 0.348931, 0.185147, -0.18987, -0.132023, 0.72605, 0.145547, -0.498687, 0.312245, 0.188322, 0.359517, 0.287971, 0.398174, -0.077198, -0.044949, 0.240486, 0.105694, -0.110108, 0.17659, -0.130377, 0.149804, 0.027515, -0.080986, -0.453525, 0.633181, 0.096944, 0.241665, 0.02164, -0.020078, -0.165075, -0.136935, -0.236592, 0.223118, 0.191686, -0.173788, -0.521768, 0.316089, 0.501204, -0.197281, -0.084054, -0.279303, 0.343991, 0.042861, -0.085995, -0.161978, 0.170185, 0.061623, -0.056396, 0.158721, 0.342951, 0.233269], [0.301437, 0.213244, -0.314521, 0.233707, 0.035202, 0.397234, -0.118171, 0.076034, -0.313911, 0.051831, -0.303996, 0.185897, -0.362379, -0.358165, 0.235589, 0.140236, -0.106377, -0.248586, -0.426003, -0.344471, -0.254268, -0.047751, -0.045098, -0.076484, -0.121215, -0.19178, -0.223998, 0.408843, 0.139647, 0.304838, 0.467842, 0.021358, 0.317524, -0.611702, 0.126968, -0.319469, 0.698337, -0.172039, -0.124815, -0.223423, -0.09245, -0.263742, -0.546974, -0.147574, -0.319985, -0.232935, -0.434608, 0.001972, -0.233486, -0.501894, 0.188025, -0.136821, 0.23, 0.215599, -0.16068, 0.184203, -0.047882, -0.05279, 0.00406, -0.227788, 0.694127, -0.108814, 0.450277, -0.267664], [-0.12565, 0.032417, -0.159532, -0.329996, -0.139499, 0.515968, -0.120309, 0.04099, 0.311969, -0.370378, 0.165167, -0.348197, 0.219056, -0.276057, -0.568268, -0.131886, 0.256354, -0.001448, 0.029432, -0.366735, -0.047466, -0.317729, -0.548791, -0.220865, -0.244173, -0.063243, 0.008768, -0.159589, -0.62894, -0.119791, 0.429719, 0.196343, 0.323252, -0.357928, -0.514363, -0.29593, -0.269534, -0.867871, 0.078621, 0.0725, -0.806463, 0.290518, -0.145203, -0.176432, -0.008612, -0.039571, -0.177538, -0.416226, -0.10376, 0.259432, 0.300764, 0.035481, 0.43088, -0.24214, -0.02908, 0.21828, -0.395609, -0.558229, 0.512456, 0.022604, -0.014029, -0.190437, 0.706148, -0.273885], [-0.016796, -0.45877, -0.337193, 0.089999, 0.442752, 0.109799, -0.243142, -0.069848, -0.311018, 0.496844, -0.294219, 0.385773, -0.370263, 0.580439, -0.498217, -0.010781, -0.783888, 0.490499, 0.291873, 0.360324, 0.03194, 0.087001, 0.601951, 0.468497, 0.099822, -0.37065, -0.19299, -0.028315, 0.109425, -0.407346, -0.708306, -0.400118, -0.150701, 0.330457, -0.168988, -0.099126, -0.130137, 0.518496, -0.108166, 0.111183, 0.336039, -0.507083, -0.14814, 0.294672, 0.279539, 1.051002, 0.151353, 0.067885, 0.174892, -0.235786, -0.001146, -0.415932, -0.737544, -0.165142, -0.067941, 0.008183, -0.143326, 0.661605, -0.046833, 0.09422, -0.10849, 0.119483, 0.220486, -0.029145], [0.314472, 0.508847, 0.075063, -0.044343, -0.502775, 0.14119, 0.178496, -0.206006, -0.021515, -0.383675, 0.038832, -0.146571, -0.199423, -0.63372, -0.373657, 0.541875, -0.093414, -0.530833, -0.273211, -0.236704, -0.001849, -0.118279, 0.115184, -0.405682, -0.108002, 0.23363, 0.310519, 0.016482, 0.140785, -0.018187, 0.589417, -0.13762, 0.049703, -0.320699, -0.278538, -0.102519, 0.37219, 0.101654, 0.012364, -0.487453, -0.298897, 0.361213, 0.16881, 0.224546, -0.392026, 0.078457, -0.634423, 0.030097, -0.16713, -0.114438, -0.505595, -0.156647, -0.077915, 0.592479, 0.008232, -0.182271, 0.122497, -0.275916, -0.181953, -0.095143, 0.157894, -0.130451, -0.409396, 0.170258], [-0.450144, -0.320232, 0.019291, -0.052141, 0.04249, 0.025789, -0.173843, -0.336781, 0.02911, -0.363268, 0.323566, -0.652224, 0.269037, -0.129829, 0.273869, 0.087281, 0.422486, -0.082213, -0.46758, 0.074168, -0.030713, -0.106646, 0.250491, -0.067363, -0.003153, 0.190089, 0.014518, -0.298014, -0.186942, -0.391001, 0.057272, -0.144638, 0.1671, 0.247397, -0.058703, -0.231917, -0.228493, -0.159781, -0.453491, -0.23298, -0.122574, -0.270924, 0.011649, 0.151456, -0.194278, -0.4116, 0.350048, -0.354825, 0.123448, 0.111456, 0.322742, 0.237863, 0.169971, 0.003857, -0.009875, -0.24729, 0.089137, -0.17589, 0.070573, -0.143345, -0.325927, -0.39374, 0.458289, -0.089818], [-0.212505, -0.166017, 0.032281, -0.101203, -0.137754, -0.306297, -0.188955, -0.005078, -0.195133, 0.179769, 0.246252, -0.405733, 0.486025, -0.138222, -0.29658, 0.18804, -0.027912, -0.375085, -0.308713, 0.333455, -0.028585, 0.360558, -0.22342, 0.152377, -0.246997, 0.359472, 0.226032, -0.029877, -0.241179, 0.064861, 0.262088, 0.479222, -0.314457, 0.399062, -0.19618, 0.064163, -0.453505, -0.380671, -0.389096, 0.585964, -0.181595, 0.385771, -0.157572, -0.210298, 0.4023, -0.204329, 0.265968, 0.176103, 0.318892, -0.069791, 0.045693, 0.236623, 0.149384, 0.045731, -0.193534, -0.217731, 0.250384, 0.136967, -0.195882, 0.214228, -0.133366, -0.141863, 0.115396, -0.003116]], "b": [0.035957, 0.087137, -0.162904, -0.122612, 0.059409, 0.114351, 0.025872, 0.077564, 0.072154, 0.138684, -0.166464, -0.00639, -0.151996, 0.054386, 0.170429, -0.043757, -0.064016, 0.116732, 0.113588, 0.085626, -0.158843, 0.037407, -0.113957, 0.031285, -0.114102, -0.076712, -0.08034, -0.120323, 0.05521, 0.058797, 0.013113, 0.039337, 0.018677, 0.083503, 0.021373, -0.050721, 0.005002, -0.044911, 0.030498, 0.10544, 0.046936, -0.076672, 0.109615, -0.029265, 0.048559, 0.002337, -0.079509, 0.04421, 0.113542, 0.054195, 0.017024, -0.02898, 0.039538, 0.030386, -0.025143, 0.110716, 0.098131, 0.029435, -0.039226, -0.088922, 0.092972, -0.103865, 0.094597, 0.07156], "act": "tanh"}, {"w": [[-0.151514, -0.158753, 0.123789, 0.00796, -0.185478, 0.174047, -0.13798, -0.02164, 0.122728, 0.01272, 0.056812, -0.169548, 0.132264, -0.080047, 0.023206, -0.079189, 0.127556, -0.080243, -0.089788, 0.057759, 0.016731, 0.07906, 0.00232, 0.037936, 0.099768, 0.013388, 0.099023, -0.122546, 0.07181, -0.122324, -0.075399, 0.029972, -0.026132, -0.141252, 0.021809, -0.218509, -0.267399, 0.026455, 0.049117, 0.037167, 0.10642, -0.173652, 0.016117, 0.167511, -0.078107, -0.012382, 0.028412, 0.116905, -0.0239, -0.174077, 0.086615, -0.131556, 0.061194, -0.099476, 0.082095, -0.006206, -0.030921, -0.01041, -0.073569, 0.123446, 0.059865, -0.183789, -0.00663, -0.056963], [0.169088, -0.214953, 0.257317, 0.237514, -0.258558, 0.080375, -0.0748, -0.171708, 0.05085, 0.06198, 0.340934, -0.20802, 0.248942, 0.025418, 0.137787, 0.155779, 0.393458, -0.018133, -0.195886, -0.021356, -0.10636, -0.301199, -0.058733, -0.085656, 0.355941, 0.260294, 0.141417, -0.047775, 0.075501, -0.100776, -0.075975, -0.053416, -0.186954, -0.080238, -0.036429, -0.251658, -0.130519, 0.44574, 0.137454, 0.195919, -0.019254, -0.029737, 0.10574, 0.157154, -0.300231, -0.012695, 0.14144, 0.082634, 0.079854, -0.227139, 0.210062, -0.327969, 0.045681, -0.154944, 0.064095, -0.22182, -0.193282, 0.236845, -0.080974, 0.123344, 0.040008, -0.125496, -0.051238, -0.114109], [-0.017384, -0.104528, 0.216159, 0.099439, -0.222665, 0.068775, -0.031337, -0.07757, 0.015059, -0.08943, 0.179364, -0.021997, 0.233082, -0.072632, -0.063555, 0.034826, -0.000542, -0.103113, -0.154988, 0.050042, 0.020571, -0.024169, 0.121504, -0.078379, 0.169525, 0.07411, 0.030492, 0.009448, -0.087487, -0.17545, -0.171528, -0.088338, 0.025716, -0.1827, -0.125884, -0.256462, -0.197172, -0.036314, -0.016533, -0.118246, -0.193532, -0.001229, -0.003097, 0.082845, -0.178591, 0.03606, 0.028324, 0.121272, -0.186041, -0.209953, 0.064182, -0.047306, -0.038425, -0.059708, -0.001824, -0.114372, -0.166808, -0.025371, -0.031933, 0.142159, -0.107364, -0.037823, -0.084658, -0.057551], [0.109601, -0.250544, 0.3266, 0.239231, -0.148842, 0.198785, -0.234358, -0.112488, 0.241637, 0.040802, 0.471133, -0.265665, 0.326733, 0.113516, 0.012297, 0.258398, 0.473034, 0.054712, -0.362937, 0.028316, -0.056094, -0.291429, -0.011845, -0.155482, 0.311042, 0.347762, 0.1223, -0.094181, 0.136629, -0.095284, -0.353262, -0.142942, -0.178919, -0.326573, -0.028483, -0.317433, -0.244317, 0.354428, 0.199769, -0.102278, 0.071093, -0.073471, 0.112865, 0.241973, -0.264746, 0.115982, 0.22675, 0.367142, -0.007197, -0.421372, 0.406622, -0.350056, -0.095004, -0.304974, 0.107595, -0.2466, -0.199839, 0.075217, -0.22639, 0.301466, 0.009953, -0.262049, 0.130762, -0.119183], [0.031721, -0.244542, 0.152463, 0.093221, -0.237346, -0.088943, -0.230132, -0.215616, -0.171825, 0.142585, 0.200978, -0.17218, 0.226554, 0.112535, 0.139485, -0.080882, 0.146124, 0.057031, -0.342298, 0.102147, -0.150104, -0.149127, -0.118879, -0.214855, 0.220361, 0.075493, -0.078208, -0.164945, 0.16524, 0.010179, -0.427795, -0.031126, -0.236222, -0.095873, -0.096905, -0.169255, -0.266258, 0.036448, 0.223057, 0.242814, 0.108927, -0.041163, 0.151042, 0.382593, -0.018488, 0.01935, 0.098381, 0.128012, 0.038693, -0.20294, 0.082542, -0.373632, 0.197403, -0.17421, 0.130128, -0.202366, -0.042282, 0.084094, 0.100648, 0.244911, 0.125776, -0.087473, 0.272158, -0.103826], [0.199224, -0.181643, 0.224263, 0.067571, -0.232199, 0.095573, 0.008031, -0.133697, -0.077267, 0.086264, 0.189259, -0.060257, 0.169485, 0.100183, 0.074293, 0.094253, 0.25837, 0.061705, -0.182054, 0.022365, -0.143571, -0.141888, -0.083439, -0.129419, 0.150082, 0.228934, 0.003204, -0.081579, 0.068142, -0.040609, -0.078744, -0.041676, -0.115732, -0.073906, -0.128469, -0.220724, -0.071842, 0.285269, 0.183305, 0.053424, 0.041933, -0.171084, 0.01355, 0.179512, -0.176919, 0.051609, 0.052164, 0.043669, -0.005454, -0.25673, 0.143122, -0.192732, 0.132946, -0.149975, -0.083524, -0.148082, -0.013727, 0.218078, 0.040616, 0.053276, 0.108056, -0.134342, 0.056791, -0.137496], [0.267182, -0.23446, 0.248076, 0.135427, -0.333811, 0.00426, 0.035549, -0.276692, -0.021737, 0.133512, 0.385693, -0.262788, 0.275517, 0.12393, 0.039273, 0.100751, 0.291486, -0.005492, -0.365915, -0.037752, -0.010753, -0.133548, -0.044275, -0.207464, 0.177198, 0.207802, 0.142586, -0.132145, -0.18158, 0.026202, -0.356823, -0.109713, -0.172279, -0.173331, -0.097295, -0.258186, -0.072303, 0.357138, 0.303772, 0.142694, 0.028508, -0.121255, 0.087596, 0.121196, -0.241286, 0.134063, -0.00865, 0.13287, 0.203052, -0.274476, 0.163254, -0.360839, 0.085723, -0.268562, -0.115733, -0.248178, 0.023529, 0.267104, 0.00667, 0.079548, 0.088296, -0.119947, 0.142596, -0.150416], [0.215519, -0.203286, 0.222131, -0.137662, -0.36906, 0.089652, 0.043191, -0.143451, -0.03947, 0.054962, 0.143811, -0.334509, 0.225432, 0.020188, 0.11752, -0.227072, 0.270084, -0.057779, -0.300797, 0.020094, -0.157141, -0.237053, -0.169003, -0.1454, 0.10504, 0.119131, 0.099791, -0.085296, 0.051451, 0.323771, -0.056667, -0.113562, -0.204593, 0.218279, -0.127648, -0.145227, -0.225126, 0.27153, 0.204956, -0.043011, 0.109605, -0.132605, 0.070479, 0.169933, -0.215367, 0.304276, 0.117237, -0.078066, 0.212117, -0.197872, 0.137501, -0.150651, 0.158137, -0.283595, -0.136263, -0.197783, 0.068257, 0.174876, 0.1107, 0.340601, 0.081865, -0.24081, 0.057935, -0.105606], [0.038171, -0.264217, 0.210425, 0.032285, -0.079739, 0.039305, -0.214512, -0.186803, 0.007704, 0.059897, 0.130496, -0.144958, 0.211855, 0.04908, 0.111756, -0.109286, 0.246994, 0.00892, -0.285417, 0.108126, -0.069231, -0.143098, 0.066069, -0.03869, 0.214562, 0.071233, 0.166498, -0.049134, -0.026714, 0.113393, -0.186412, 0.007652, -0.140461, 0.08063, -0.074447, -0.127209, -0.242734, 0.162667, 0.254555, -0.01152, 0.007039, 0.007264, 0.064905, 0.21382, -0.230561, 0.246722, 0.170345, 0.239673, 0.034082, -0.118527, 0.128687, -0.178065, 0.01185, -0.149595, 0.078695, -0.191416, -0.014147, 0.071473, 0.000682, 0.324671, 0.027851, 0.039846, 0.063319, -0.15519], [0.351072, -0.142359, 0.249911, -0.148465, -0.20823, 0.148798, -0.116179, -0.114305, 0.228787, -0.012358, 0.286991, -0.217931, 0.189699, -0.037217, 0.077409, -0.242686, 0.146338, -0.093364, -0.086577, 3e-06, -0.101864, -0.061402, 0.017493, -0.075474, -0.052652, 0.014672, 0.304455, -0.037224, -0.457118, 0.228224, -0.020162, -0.161502, -0.111498, 0.066065, -0.028996, -0.246512, -0.165976, 0.254259, 0.168393, -0.276298, -0.028536, -0.047156, -0.003254, 0.113738, -0.337584, 0.350957, 0.035348, -0.071818, 0.136596, -0.320361, 0.309922, -0.120756, 0.078881, -0.098973, -0.275708, 0.009976, 0.092725, 0.105781, 0.094882, 0.269709, -0.033028, -0.123135, 0.042112, -0.074506], [0.105244, -0.245926, 0.164261, -0.004573, -0.359989, -0.31143, 0.035182, -0.148787, 0.038403, 0.01799, -0.016168, -0.271826, -0.056146, 0.069244, 0.142717, -0.078323, 0.279775, -0.009323, -0.256662, 0.146824, -0.056324, -0.231769, 0.022529, -0.137896, 0.021181, 0.080689, 0.346548, -0.148946, -0.245884, 0.08908, 0.091848, -0.08935, -0.161027, 0.109337, -0.053203, 0.080517, -0.269633, 0.260962, 0.242504, -0.095682, -0.075723, 0.215358, 0.123089, 0.092311, -0.316297, 0.206496, 0.151568, -0.022017, 0.139057, 0.096643, 0.091741, -0.012457, 0.2041, -0.170471, -0.153603, -0.106942, 0.011212, 0.332014, -0.028925, 0.263487, 0.06251, -0.093642, 0.046534, -0.062189], [-0.004993, -0.056494, 0.078279, -0.045023, 0.052445, -0.144698, -0.020631, -0.123217, -0.057605, -0.069888, 0.072596, -0.127424, -0.011636, -0.021866, -0.234819, 0.051912, -0.108414, -0.128604, -0.056699, -0.105913, 0.219927, 0.183742, 0.167046, -0.038436, 0.002617, 0.036718, 0.104616, 0.039143, -0.054923, 0.113249, -0.125258, 0.163183, 0.048154, 0.154574, -0.047222, 0.000741, 0.123783, -0.089257, 0.075191, -0.127955, 0.02669, 0.100294, 0.020444, -0.071218, 0.124786, 0.050649, 0.018484, 0.076999, -0.007984, 0.106551, -0.004111, -0.189681, -0.133729, 0.11693, -0.012022, -0.095698, 0.075548, 0.011176, 0.157443, 0.067611, -0.094442, 0.015886, 0.046475, -0.029353], [0.067781, -0.138686, 0.018681, -0.184524, -0.216331, -0.161887, 0.231466, -0.110651, -0.169903, 0.222542, -0.026871, -0.190924, -0.027363, 0.156522, 0.258086, -0.142536, 0.189115, 0.216412, -0.095086, 0.036935, -0.181737, -0.265711, -0.146195, -0.264883, -0.125896, -0.033575, 0.19822, -0.149589, -0.08146, 0.280506, -0.083734, -0.054247, -0.100858, 0.257211, -0.02197, -0.159208, -0.071438, 0.17504, 0.112631, 0.088615, 0.076038, -0.006383, 0.150866, 0.086595, -0.163815, 0.246321, 0.105141, -0.079571, 0.17946, -0.008977, -0.196442, -0.05104, 0.288415, -0.093823, -0.125738, -0.014832, 0.208828, 0.186645, -0.018316, 0.10745, 0.175987, -0.115342, 0.080241, -0.045168], [0.087586, 0.064336, -0.001555, -0.103027, -0.355832, 0.161228, 0.241809, 0.115794, 0.216073, 0.163242, -0.026991, -0.216311, -0.05015, 0.173807, 0.295682, -0.048707, 0.296721, 0.128799, -0.01894, -0.398151, -0.189377, -0.069583, 0.170165, -0.374148, -0.162325, -0.041387, 0.334538, -0.144465, -0.205783, 0.417841, 0.237217, -0.237904, -0.089053, 0.417663, 0.267863, -0.496309, 0.014668, 0.462527, 0.08863, 0.082758, -0.107194, -0.569548, -0.273619, -0.201962, -0.251808, 0.434994, -0.236695, -0.225326, 0.087924, -0.181341, -0.224283, 0.037128, 0.18587, -0.299521, -0.383569, 0.08496, 0.115697, 0.202789, -0.238662, -0.495311, 0.499952, -0.457903, 0.018694, 0.087089], [-0.157567, -0.118112, -0.028445, -0.147919, 0.078399, -0.031519, 0.105452, 0.041827, 0.112262, 0.00212, -0.177348, 0.145737, -0.106257, 0.162565, 0.221067, -0.017915, 0.078015, 0.155169, -0.076516, 0.022172, -0.047503, -0.183455, 0.18839, -0.17392, -0.191734, -0.036441, 0.339696, -0.166348, -0.289924, 0.207235, -0.221236, -0.065284, 0.032612, 0.046452, -0.084101, 0.039622, -0.137315, 0.08589, 0.107161, -0.094889, -0.179361, 0.207846, 0.210274, -0.097401, -0.056499, 0.112133, 0.236789, 0.172721, -0.038057, 0.198715, -0.048101, 0.034004, -0.007445, 0.137196, -0.165255, -0.015924, 0.212445, 0.235432, 0.15244, -0.104652, 0.174449, 0.018851, 0.042362, -0.108561], [0.051626, 0.094682, -0.011569, -0.12267, 0.12671, 0.162502, 0.017943, 0.018331, -0.060657, 0.189671, -0.071796, 0.143144, -0.106634, 0.231061, 0.277446, -0.056049, 0.136015, 0.233086, 0.093508, -0.010413, -0.277195, -0.114706, -0.023907, -0.148115, -0.140422, -0.075137, -0.044281, -0.245534, -0.110935, 0.196658, -0.00187, -0.135294, -0.020854, 0.092082, 0.095415, 0.034234, 0.197636, 0.203282, -0.047525, 0.035792, 0.005653, -0.267736, -0.000173, -0.082906, -0.030158, -0.059361, -0.071106, 0.034303, 0.065865, -0.123998, 0.143178, -0.254482, -0.079863, 0.048369, -0.002471, 0.05506, 0.141539, 0.014812, -0.163168, -0.286337, 0.29155, -0.074539, 0.006104, 0.002762], [0.091366, 0.082839, -0.046224, -0.15647, 0.134505, -0.015058, 0.057031, -0.011089, -0.028932, -0.067947, -0.134674, 0.19069, -0.150699, 0.18642, 0.141078, -0.081716, 0.019743, -0.042297, 0.081183, 0.176166, -0.164146, -0.072541, -0.228442, 0.094872, -0.185038, -0.120947, 0.034652, -0.074888, 0.148911, 0.21903, 0.181984, -0.108456, -0.023276, 0.272779, -0.110493, 0.297825, 0.152657, 0.040108, -0.058375, -0.039169, 0.158192, -0.115478, 0.061626, 0.158294, -0.124614, 0.076449, 0.082988, -0.303754, 0.06069, 0.098034, -0.090233, 0.052869, 0.163736, -0.024903, -0.115111, 0.071184, 0.175506, 0.078809, 0.050938, 0.010455, 0.214318, 0.130223, 0.045078, -0.015523], [-0.025627, 0.092514, -0.125586, -0.318281, 0.304527, 0.253945, -0.052895, 0.005859, 0.146181, 0.352331, -0.189954, -0.135874, -0.183791, 0.24488, 0.407187, -0.169261, -0.044056, 0.381045, 0.146762, 0.218125, -0.202414, -0.061399, -0.133613, -0.209466, -0.322863, -0.16674, 0.12522, -0.294301, -0.2182, 0.266716, -0.113999, -0.078856, -0.125331, 0.134173, 0.107231, -0.14805, -0.025948, 0.046488, -0.106691, -0.043727, 0.227541, -0.243868, 0.276445, -0.18153, 0.1957, 0.119012, 0.042346, -0.033323, 0.175006, 0.079944, 0.463942, 0.03087, 0.038137, 0.215316, -0.171227, 0.178981, 0.349058, -0.024254, -0.123976, -0.282642, 0.496417, -0.150253, 0.218601, 0.020002], [-0.003519, 0.129903, -0.061239, -0.112436, 0.328702, 0.115939, 0.045037, 0.115726, 0.216811, 0.274326, -0.073433, -0.107667, -0.130131, 0.311444, 0.29793, -0.011636, -0.202343, 0.291697, 0.145512, 0.269163, -0.218388, -0.244751, -0.270703, -0.30409, -0.130985, 0.00393, 0.016258, -0.254161, -0.331437, 0.226816, 0.097514, -0.241323, -0.118449, 0.272449, 0.051602, 0.246354, 0.042806, -0.158447, -0.226132, 0.024872, 0.067579, -0.147903, 0.274275, -0.231825, 0.084513, 0.084887, 0.06777, 0.18647, 0.082779, 0.04527, 0.216266, 0.190808, 0.105058, -0.036676, -0.189649, 0.077604, 0.141004, -0.11469, -0.204362, -0.12158, 0.249659, -0.199279, 0.096943, 0.107487], [-0.037429, 0.207241, -0.169901, -0.034604, 0.066223, 0.192569, 0.345021, 0.136938, 0.130216, 0.051556, -0.116442, 0.02874, -0.156971, -0.260225, 0.153755, -0.123908, -0.218153, 0.104488, 0.135657, 0.026655, -0.085651, 0.0497, -0.285522, 0.250568, -0.015174, -0.111574, -0.298394, 0.23752, 0.235468, 0.084843, 0.360765, -0.057879, -0.182096, 0.090929, 0.163943, 0.270777, 0.105977, -0.127508, -0.207927, 0.172271, 0.211558, -0.146613, 0.114898, -0.185382, 0.270171, -0.232348, -0.214875, -0.333315, 0.163088, 0.184899, 0.027372, 0.193382, 0.218445, 0.220904, -0.168156, 0.131505, -0.003672, 0.014853, -0.045222, -0.217108, 0.043254, -0.030094, 0.109232, 0.14606], [-0.074195, 0.209721, -0.133393, -0.148677, 0.198059, 0.177121, 0.211042, 0.202851, 0.235535, 0.165243, -0.082718, -0.188521, -0.130335, -0.05739, 0.040382, -0.167274, -0.190983, 0.032027, 0.18594, 0.07475, -0.250741, -0.035208, -0.165725, 0.037029, -0.140958, -0.178603, -0.157472, 0.076075, 0.121276, 0.164287, 0.162691, -0.06918, -0.217435, 0.096356, 0.334186, 0.115691, 0.113914, -0.050574, -0.123611, 0.230749, 0.163535, -0.180157, 0.012993, -0.119056, 0.073106, -0.035735, -0.243273, -0.051244, 0.201522, -0.163055, -0.072245, 0.049293, 0.168559, -0.053382, -0.087192, 0.205522, 0.118752, -0.138517, -0.27227, -0.012006, 0.047373, -0.16879, 0.163867, 0.195157], [-0.152165, 0.081504, -0.10595, -0.071749, -0.168142, -0.02294, 0.317813, 0.194413, 0.306024, -0.070871, -0.134146, -0.271039, -0.110675, -0.060419, 0.079151, -0.114226, -0.200952, 0.014042, 0.078569, 0.020101, 0.051244, 0.111342, -0.024374, -0.227528, 0.019431, -0.079783, -0.032339, -0.218484, -0.135218, 0.054523, 0.158414, 0.241162, -0.170434, 0.028757, 0.125069, 0.053134, -0.208836, -0.12883, -0.211859, 0.042353, -0.054525, -0.012936, 0.113188, -0.278157, 0.132628, 0.038095, -0.033346, -0.023149, 0.106636, 0.067805, -0.242753, 0.208429, 0.189173, -0.196718, -0.203402, 0.149259, -0.027404, 0.143583, -0.26997, -0.075592, 0.14215, -0.403212, 0.126835, 0.157827], [-0.088119, 0.125733, -0.085514, -0.118775, -0.134156, 0.010526, 0.192768, 0.111402, 0.167225, -0.120179, -0.097486, -0.254794, -0.128752, -0.119122, 0.062641, -0.218369, -0.174522, 0.072048, 0.118627, 0.174975, -0.029119, 0.094853, -0.05843, 0.004628, -0.024566, -0.101333, -0.043864, -0.228246, -0.099268, 0.072579, 0.180282, 0.072383, -0.205415, -0.026312, 0.100474, 0.013769, -0.143417, -0.076928, -0.099073, 0.05563, 0.13456, 0.026413, 0.071493, -0.158499, 0.076068, 0.040974, -0.110735, -0.114865, 0.162195, 0.08407, -0.278491, -0.017128, 0.128564, -0.05215, -0.157554, 0.123892, 0.047378, 0.134124, -0.100287, -0.109419, 0.08506, -0.107169, 0.179114, 0.138308], [-0.289056, 0.04226, -0.047091, -0.099407, 0.004538, 0.069089, -0.221728, 0.039905, 0.111446, 0.009884, -0.101897, -0.136891, -0.068756, -0.141256, 0.046562, -0.042904, -0.169934, 0.004565, 0.084306, 0.178223, -0.035606, 0.227808, 0.040693, 0.147433, -0.085473, -0.114095, -0.04133, -0.130411, -0.046224, -0.045045, -0.214587, 0.195412, -0.010169, -0.12943, 0.108406, -0.008727, -0.175109, -0.254524, -0.04326, -0.027888, -0.020974, -0.013977, 0.073203, -0.105636, 0.157535, -0.119836, -0.030151, 0.232953, 0.042381, 0.039812, 0.071785, 0.09579, -0.088658, 0.118284, 0.140424, 0.098751, 0.07967, -0.259901, -0.152681, -0.079901, 0.024264, 0.099866, 0.070259, 0.054396], [-0.057405, 0.106518, -0.100649, -0.045246, -0.229625, -0.076831, 0.290554, 0.141314, 0.048844, 0.080034, -0.123201, -0.119354, -0.129528, 0.001405, -0.087941, -0.085958, -0.080758, -0.056958, 0.033238, 0.102776, -0.111419, 0.006619, -0.095673, -0.07775, 0.020055, -0.039081, -0.078895, -0.000888, -0.040644, -0.015574, 0.160222, -0.065695, -0.174852, -0.04323, 0.008455, -0.000422, -0.029542, 0.004782, -0.080229, 0.244461, 0.092913, 0.03814, -0.03746, -0.09237, 0.072192, -0.019692, -0.134899, -0.168558, 0.129097, -0.010524, -0.079097, 0.134827, 0.174844, -0.048012, -0.101425, 0.102383, -0.01278, 0.045236, -0.06702, -0.043711, -0.064535, -0.043273, 0.084827, 0.159624], [0.010184, 0.075691, -0.063293, -0.050363, 0.012304, 0.089831, -0.02615, 0.079422, -0.205262, 0.100309, -0.025295, -0.061135, -0.057621, -0.057002, -0.079682, -0.105856, -0.12709, 0.052472, 0.06491, 0.038003, -0.037093, 0.300163, -0.051023, 0.097382, -0.041781, -0.101459, -0.159536, -0.051694, 0.028809, -0.082468, -0.224382, -0.070245, -0.038843, -0.177382, 0.036454, -0.087186, 0.082895, -0.104697, -0.099644, 0.031964, 0.074845, -0.018571, -0.056169, -0.097771, 0.180492, -0.006773, -0.143558, 0.040679, 0.144067, -0.19767, 0.104795, -0.190221, -0.21076, 0.130461, 0.080783, 0.095867, 0.024321, -0.205417, -0.024215, -0.084625, -0.015855, 0.266857, 0.069735, 0.092075], [-0.068049, 0.169826, -0.108856, -0.0082, 0.037973, 0.091995, -0.041808, 0.219624, 0.261214, 0.021991, -0.107245, -0.159582, -0.116475, -0.094936, -0.122061, -0.091885, 0.004826, 0.050407, 0.125046, -0.003621, 0.006548, -0.154928, -0.100152, 0.202609, 0.024138, -0.07557, -0.04211, 0.041122, -0.117156, 0.035915, 0.215988, 0.034575, -0.174742, -0.034562, 0.215236, -0.04552, -0.023327, 0.14877, -0.047273, 0.145096, 0.096493, 0.079207, 0.045135, -0.182968, 0.0508, -0.078166, -0.071461, 0.126966, 0.171138, -0.023458, 0.173242, 0.125626, 0.057419, 0.01616, 0.033666, 0.163091, -0.044773, -0.190186, -0.18772, 0.028852, -0.141724, 0.009923, 0.089992, 0.225712], [0.001106, 0.064029, -0.065333, -0.062713, 0.076353, -0.298076, 0.028533, 0.123962, 0.079412, 0.01869, -0.066534, -0.125401, -0.118915, 0.007486, -0.28681, -0.061666, 0.015364, -0.067362, 0.024022, -0.344904, 0.22228, -0.109116, 0.108265, 0.08237, -0.041517, -0.039099, 0.061106, 0.098712, -0.179396, 0.11827, 0.010946, 0.118429, -0.099232, 0.154444, 0.139242, 0.113376, 0.052876, 0.12589, -0.077358, 0.140779, 0.078148, 0.20903, 0.031746, -0.015128, 0.042036, 0.155729, 0.040291, 0.113553, 0.080629, 0.180431, -0.072127, -0.045665, -0.081478, -0.156548, -0.043285, 0.093009, 0.059009, -0.081609, -0.169975, 0.07338, -0.201144, 0.02899, 0.071101, 0.148325], [-0.034604, 0.104191, -0.066399, -0.03764, 0.153386, -0.115698, -0.163266, 0.173291, -0.156209, -0.005673, -0.065502, -0.047689, -0.086988, -0.073436, -0.287182, -0.088074, 0.024423, -0.273135, 0.107363, -0.007437, 0.073642, 0.089428, -0.034395, 0.183334, -0.073326, -0.131023, -0.115861, 0.369939, 0.120672, 0.064752, 0.042945, -0.111313, -0.052087, 0.134333, 0.045387, 0.091311, -0.025163, -0.228064, 0.070026, 0.126365, 0.054308, 0.156482, -0.330331, 0.138315, -0.027257, 0.165828, -0.053724, 0.028883, 0.076262, -0.125371, -0.157039, 0.026774, -0.09401, -0.135211, 0.060905, 0.126996, 0.032316, -0.350773, 0.119557, 0.412379, -0.315558, 0.27252, 0.085782, 0.169858], [0.156452, 0.083517, -0.094107, -0.074444, 0.165595, -0.205357, -0.021265, 0.187006, -0.094374, -0.382706, -0.095911, 0.017871, -0.101943, -0.231759, -0.302773, -0.11208, -0.066122, -0.336068, 0.11786, -0.193326, 0.467055, 0.135321, 0.050291, 0.274901, -0.102667, -0.091879, 0.133094, 0.249472, 0.079303, 0.091675, 0.058971, 0.015762, -0.030583, 0.087377, -0.011543, 0.198855, 0.213352, -0.148082, -0.260291, -0.036769, -0.045537, 0.264025, -0.216007, -0.056599, 0.197572, 0.126663, -0.112822, 0.056485, 0.080008, 0.170041, 0.069044, 0.064368, -0.293403, 0.177491, -0.012853, 0.109371, 0.057408, 0.029174, 0.1255, 0.195856, -0.254103, 0.168163, 0.08675, 0.179326], [-0.0933, 0.128354, -0.037507, -0.04615, 0.066664, -0.10485, -0.131273, 0.149818, 0.123256, -0.049384, -0.00588, 0.003211, -0.085958, -0.175776, -0.153072, -0.108989, 0.071034, -0.110836, 0.112969, 0.188338, -0.053416, -0.034264, 0.031406, -0.055191, -0.044, -0.073351, 0.300319, 0.121622, -0.302048, 0.130291, 0.013406, -0.124191, -0.028029, 0.0644, 0.312476, 0.091276, -0.130988, -0.039103, -0.04993, 0.08896, -0.167707, 0.13665, -0.127359, -0.097995, -0.152161, 0.193136, -0.131358, -0.041081, 0.063692, 0.106472, -0.015154, 0.250211, -0.031887, 0.254237, -0.028369, 0.091064, 0.020524, 0.000849, -0.108401, 0.093146, -0.291441, 0.238921, 0.022741, 0.117354], [-0.304439, -0.039114, -0.052549, -0.048517, -0.077093, -0.359426, 0.025084, 0.091569, -0.003408, 0.001925, -0.067062, -0.3272, -0.010356, 0.080323, -0.102201, -0.006122, -0.109901, 0.062007, -0.06482, 0.065838, 0.102293, -0.267749, 0.118517, -0.115112, -0.0258, 0.016689, 0.231901, -0.026191, -0.177855, 0.040851, -0.273467, -0.200397, -0.087932, 0.0113, 0.001655, -0.033829, -0.29553, -0.160488, -0.091995, 0.226884, -0.057017, 0.166774, 0.183712, -0.226453, 0.101587, 0.074276, 0.044823, 0.290735, 0.062552, 0.153398, -0.17761, 0.211968, 0.002421, -0.185392, -0.059287, -0.007629, 0.046752, -0.059829, -0.225459, 0.064941, -0.102634, 0.036161, 0.039341, 0.13243], [-0.06186, 0.047343, -0.043417, -0.035947, 0.064683, -0.252826, 0.017238, 0.134042, -0.079511, -0.185755, -0.044228, -0.022301, -0.056019, -0.220369, -0.185021, -0.094762, 0.017874, -0.212688, 0.068266, 0.085024, 0.222345, 0.066361, 0.1143, 0.059562, 0.000839, -0.055783, 0.065069, 0.097564, 0.051439, 0.025095, 0.050051, -0.06505, -0.026482, 0.053181, -0.043372, 0.075832, -0.028866, -0.092896, 0.025073, -0.050952, 0.014744, 0.179212, -0.20291, -0.162875, 0.096018, 0.134446, -0.04414, 0.12981, 0.064185, 0.184405, -0.192522, 0.119578, -0.151962, 0.128791, -0.001706, 0.081923, 0.001533, -0.093811, 0.054597, 0.074191, -0.23925, 0.157837, 0.043538, 0.111519], [0.011202, 0.046043, -0.014537, -0.104823, 0.080714, -0.050741, -0.025297, 0.097556, 0.083812, -0.09218, -0.052945, 0.135138, -0.066069, -0.200146, -0.055812, -0.086146, 0.012434, -0.226674, 0.066758, -0.112856, -0.118446, -0.166772, -0.066654, 0.207307, -0.087907, -0.069603, -0.018265, 0.257546, 0.174964, 0.099143, 0.037385, -0.06698, -0.057819, 0.049313, 0.106508, 0.084616, 0.085388, -0.058055, -0.067456, 0.10108, 0.076776, -0.000536, -0.013634, 0.029513, 0.081298, 0.019603, -0.130337, -0.054621, 0.073542, -0.023928, 0.054507, -0.031431, -0.146891, -0.010033, -0.038088, 0.098528, 0.072951, -0.128618, 0.058575, 0.078676, -0.164695, 0.053436, 0.044432, 0.085002], [-0.224047, 0.054134, -0.03775, -0.051142, 0.096469, -0.028361, -0.041809, 0.04873, -0.035468, 0.019168, -0.06539, 0.074693, -0.090368, -0.091548, -0.172215, -0.093747, 0.02982, -0.149771, 0.016405, -0.066707, -0.203138, -0.048876, 0.094664, 0.149874, -0.043721, -0.040129, 0.099323, 0.230937, -0.015903, 0.073224, -0.041508, 0.130254, 0.017171, 0.043211, 0.077344, 0.08015, -0.058393, -0.118102, 0.042965, 0.064859, -0.029404, 0.033086, 0.072524, -0.075862, 0.012045, 0.007399, -0.032399, 0.113384, 0.055226, 0.079146, -0.121077, -0.048325, -0.144883, 0.093581, 0.126669, 0.086096, 0.013673, -0.119073, -0.111502, 0.080919, -0.250181, 0.299152, 0.008659, 0.02876], [-0.023759, 0.147049, -0.053527, 0.002284, 0.028325, -0.193617, 0.04122, 0.086832, -0.20197, 0.072277, -0.026244, -0.008916, -0.030367, 0.04296, -0.280882, -0.024126, 0.236069, -0.11928, 0.029547, -0.076819, 0.024396, -0.090323, -0.0332, -0.214778, -0.025109, -0.06922, -0.128306, 0.162416, 0.065146, 0.034523, 0.008775, -0.180592, -0.071993, 0.14352, -0.129416, 0.044132, 0.127124, 0.022145, 0.127607, 0.180174, -0.043684, -0.002841, -0.358434, 0.102513, -0.222689, 0.140712, -0.111843, 0.019699, 0.070364, -0.076487, -0.250663, 0.042623, 0.076488, -0.081776, -0.031233, -0.001251, -0.019143, 0.002023, 0.039479, 0.238474, -0.208566, 0.0145, 0.02504, 0.139068], [-0.021726, 0.134501, -0.109878, -0.059346, 0.110563, -0.086254, 0.053076, 0.054258, -0.186909, -0.112962, -0.142901, -0.067117, -0.125499, 0.03083, -0.264809, -0.107155, -0.03706, -0.099925, 0.100533, -0.088734, 0.145662, 0.320786, 0.149288, 0.261118, -0.053679, -0.196931, -0.152119, -0.048603, 0.085338, -0.001207, -0.017878, 0.077514, -0.042595, 0.051963, -0.244669, 0.08305, 0.139801, -0.146406, 0.022644, -0.110124, 0.12508, 0.182429, -0.148494, 0.099618, 0.171973, 0.188487, 0.014566, 0.05213, 0.071313, -0.092361, -0.028274, -0.094827, -0.297374, -0.137845, 0.00688, 0.101892, 0.037549, -0.267106, 0.127327, 0.111374, -0.114616, 0.271525, 0.06975, 0.079072], [0.041882, 0.008571, -0.06325, 0.003997, 0.079076, -0.036613, -0.006774, 0.031197, -0.170928, -0.023414, -0.074789, 0.013664, -0.032007, -0.102324, -0.061982, -0.020538, -0.149518, -0.088676, 0.044965, -0.080271, 0.148595, 0.019444, -0.035739, 0.256198, -0.010044, -0.041324, -0.135074, 0.237369, 0.213811, -0.015914, 0.169166, 0.039467, 0.031931, 0.060393, -0.106916, 0.120216, 0.13117, -0.21142, 0.016301, -0.050631, 0.08311, 0.119875, -0.134688, 0.131866, 0.140673, -0.06915, -0.013608, -0.10775, -0.014709, 0.112088, -0.106253, 0.173551, -0.027147, 0.002003, 0.010462, 0.032012, -0.016834, -0.026119, 0.272347, 0.203474, -0.12596, 0.053629, -0.022248, 0.033533], [0.103786, 0.120891, -0.052646, 0.023148, 0.064372, 0.03059, 0.038113, 0.139413, 0.068626, 0.017158, 0.000269, 0.017073, -0.023021, -0.081746, -0.003083, 0.016506, 0.105727, -0.138105, 0.037558, -0.06309, -0.104439, 0.058068, -0.007501, 0.107886, -0.016188, -0.014494, 0.063995, 0.139315, -0.196845, 0.054143, 0.045184, -0.175582, -0.016944, 0.039738, 0.185717, 0.096816, 0.143297, 0.080591, -0.111859, 0.158319, -0.166293, -0.015007, -0.250181, -0.015786, -0.100487, -0.01557, -0.185226, -0.155077, 0.066256, -0.034278, 0.015137, -0.130346, -0.029367, 0.196033, 0.045132, 0.036486, -0.012695, 0.081049, -0.052502, 0.056896, -0.223, 0.131052, 0.017844, 0.139395], [-0.047569, -0.060535, 0.002628, 0.059593, -0.005195, -0.163116, -0.057207, 0.018249, 0.168156, -0.149535, 0.01494, -0.102689, 0.064167, -0.048789, -0.058431, 0.128304, -0.038567, -0.099074, -0.069269, -0.006113, 0.086751, -0.164833, 0.029667, -0.023279, 0.028432, 0.061725, 0.026686, 0.101054, -0.03392, 0.033048, -0.042174, -0.03459, -0.075513, 0.136665, 0.126651, 0.076597, -0.158936, -0.143594, -0.031698, 0.171892, -0.045853, 0.11667, 0.083859, -0.079787, 0.006517, -0.076394, -0.107024, 0.079313, -0.0114, 0.095374, 0.046787, 0.196896, 0.0999, -0.20656, 0.075677, -0.127955, -0.04219, -0.160908, -0.083742, 0.15379, -0.210517, -0.104708, -0.026519, 0.089615], [0.312617, 0.074979, -0.031276, -0.016888, 0.103657, -0.285399, 0.076791, 0.066698, -0.049876, -0.434042, -0.015099, 0.178718, -0.031353, -0.142189, -0.245215, 0.000219, 0.034249, -0.186608, 0.025859, -0.167737, 0.275464, 0.017009, -0.053996, 0.212871, -0.022875, 0.026374, 0.034999, 0.19708, 0.02896, 0.000907, 0.210279, 0.141385, -0.011728, 0.077471, -0.027073, 0.199689, 0.343115, 0.126304, -0.075551, -0.12491, 0.109839, 0.232498, -0.116617, 0.073065, 0.017234, -0.011813, -0.04728, -0.209068, -0.016994, 0.173441, 0.158795, 0.153031, -0.064692, -0.043726, -0.029117, 0.007037, 0.011394, -0.088528, 0.144789, 0.059203, -0.126382, 0.095753, -0.004691, 0.150274], [-0.202753, 0.018445, -0.009751, 0.006605, -0.014037, -0.049662, 0.009651, 0.063685, 0.168006, -0.107137, -0.027453, 0.048849, -0.030333, -0.197534, -0.077986, -0.032876, -0.025627, -0.112262, 0.110146, 0.029269, 0.026363, -0.046934, 0.047635, 0.301841, 0.033023, -0.039549, 0.192586, 0.204039, -0.104055, -0.106125, 0.149781, 0.114871, 0.008772, -0.026073, 0.094467, 0.033132, -0.185203, 0.000528, 0.067081, 0.026671, 0.030724, 0.142468, 0.007016, -0.008951, -0.111582, 0.030563, -0.000304, 0.095182, 0.008367, 0.139105, -0.071683, 0.104482, -0.062386, 0.097238, 0.101838, 0.10254, -0.067526, -0.028686, -0.091899, 0.082728, -0.103943, 0.235763, -0.061048, 0.024908], [0.069347, 0.061726, -0.054406, -0.021665, 0.079186, 0.030332, 0.018478, -0.008546, -0.150849, 0.137428, -0.058018, 0.104375, -0.029578, 0.093654, -0.127671, -0.051426, 0.108039, -0.003952, 0.055039, -0.146838, -0.121623, 0.031994, -0.094578, 0.095838, -0.049642, -0.099152, -0.130673, 0.159885, 0.122276, -0.013307, -0.211511, -0.103095, 0.016213, 0.021541, 0.093018, 0.026761, 0.199256, -0.016566, 0.10012, 0.054634, 0.101565, -0.01795, -0.060024, -0.0192, 0.054456, 0.054451, -0.084764, -0.026274, 0.012785, -0.196549, -0.053988, -0.090501, -0.108968, -0.037899, 0.096716, 0.054264, 0.024511, -0.105292, 0.010118, 0.097298, -0.146524, 0.290721, 0.015746, 0.030943], [-0.071209, -0.074032, 0.056681, 0.096716, -0.214356, -0.213159, -0.055895, -0.044611, -0.028272, -0.232488, 0.057433, 0.142806, 0.025388, -0.092892, -0.074733, 0.031723, -0.074939, -0.119711, -0.053662, 0.101258, 0.141245, 0.00295, 0.120059, -0.006039, 0.132314, 0.066744, 0.102888, 0.113081, -0.056508, -0.150766, 0.061092, 0.01263, 0.071371, -0.046862, -0.07871, -0.074066, -0.227127, -0.055886, -0.10418, -0.053769, -0.164676, 0.010458, -0.01367, 0.005273, -0.034345, 0.028579, 0.064953, -0.021772, -0.11001, 0.174624, -0.262823, 0.176755, 0.097863, 0.045061, 0.111187, -0.034278, -0.16179, 0.055663, 0.002387, 0.134584, -0.016392, 0.017167, -0.097839, -0.009666], [0.199909, 0.109257, 0.064028, -0.016804, 0.089543, 0.054636, -0.078164, 0.08376, -0.031664, -0.076344, 0.114397, -0.020172, 0.051432, 0.01358, -0.105628, 0.100344, -0.026208, -0.08018, 0.061914, -0.152672, 0.012294, 0.226387, 0.050411, 0.101764, -0.06372, 0.011651, -0.175388, -0.025547, 0.014743, -0.061459, -0.050696, -0.110926, 0.076283, -0.07881, 0.004729, -0.125825, 0.180359, -0.026891, -0.027422, -0.043406, -0.055584, -0.041225, -0.009317, -0.021269, -0.025624, -0.149253, -0.071628, 0.058407, 0.017088, -0.332186, 0.319605, -0.13586, -0.09625, -0.204624, -0.014465, 0.001821, 0.048828, -0.262961, -0.001602, -0.071752, -0.08025, -0.008669, 0.033113, 0.054129], [0.055312, 0.005604, 0.031221, 0.144497, -0.028777, -0.02041, 0.008201, -0.016476, 0.069651, -0.029011, 0.094987, 0.126999, 0.044537, -0.000431, -0.118708, 0.078175, 0.036288, -0.108194, -0.031765, -0.181353, -0.010535, -0.053575, -0.032591, -0.09669, 0.090033, 0.066861, -0.0249, 0.200198, 0.10395, -0.162465, 0.188496, -0.042371, 0.061708, -0.024172, -0.003777, 0.015467, 0.068676, 0.033725, -0.051406, 0.024048, -0.132332, -0.083618, -0.151558, 0.034365, -0.045808, -0.042927, -0.041438, -0.157262, -0.038777, -0.013558, 0.032434, 0.03194, 0.137545, 0.041663, -0.024787, -0.067984, -0.142568, 0.059562, 0.104241, 0.100478, -0.077496, -0.075876, -0.083955, -0.014409], [-0.040324, -0.08852, -0.106048, 0.245875, -0.063063, 0.185441, -0.099564, -0.126902, -0.048383, -0.010779, -0.009966, 0.258913, 0.166662, -0.057789, 0.058341, 0.124839, -0.118552, 0.092585, 0.017837, 0.02108, 0.014362, 0.04468, -0.12971, 0.210424, 0.148687, 0.049018, -0.264563, -0.041481, 0.292302, -0.210374, 0.042171, 0.117054, 0.16484, -0.221433, -0.092505, -0.102308, -0.044726, -0.072729, 0.176068, 0.03791, -0.017973, -0.038202, 0.061167, 0.009894, 0.086383, -0.415733, -0.209028, -0.048042, -0.121705, -0.089212, 0.14918, 0.013627, -0.100127, 0.170578, 0.236941, -0.049382, -0.151039, -0.086232, 0.229824, -0.134587, -0.068124, -0.032502, -0.111553, -0.028642], [0.240505, 0.040225, 0.034511, 0.037767, 0.079534, -0.083424, 0.07088, 0.027159, -0.202149, -0.019044, 0.060083, 0.195522, -0.008159, 0.056802, -0.098041, -0.011658, 0.260134, -0.207723, 0.032016, -0.161117, 0.12958, -0.113351, -0.077223, 0.018303, -0.031165, -0.062855, -0.049773, 0.21885, 0.142213, 0.018676, 0.061763, -0.30773, 0.044875, 0.015926, 0.017463, 0.057195, 0.278682, 0.233205, 0.160784, 0.087082, 0.000288, -0.002544, -0.253837, 0.229125, -0.324575, 0.133211, 0.060597, -0.201078, -0.007043, -0.148994, -0.168081, -0.106337, -0.01204, -0.176344, -0.031596, 0.02945, -0.027338, 0.002016, 0.09818, 0.195817, -0.066923, 0.1374, -0.084312, -0.01842], [-0.102878, -0.156554, 0.052473, 0.175027, -0.101834, -0.039489, -0.175723, -0.127776, -0.101825, -0.039282, 0.0265, 0.096522, 0.114144, -0.02403, 0.029677, 0.094951, 0.058572, 0.036582, -0.005367, 0.075489, 0.076937, 0.02174, 0.000998, 0.071275, 0.139863, 0.027684, -0.042723, -0.028924, 0.149612, -0.233007, -0.141993, 0.154947, 0.166005, -0.171066, -0.079746, -0.128693, -0.175915, -0.086461, 0.175144, -0.132063, -0.108179, 0.128384, 0.02989, 0.054228, -0.036299, -0.093399, 0.168667, 0.14304, -0.119747, 0.160981, -0.185462, 0.076693, -0.059901, 0.137863, 0.241107, 0.018014, -0.167121, 0.070373, 0.026292, 0.009163, -0.026082, 0.045464, -0.180674, -0.122317], [-0.047191, -0.065205, -0.098486, 0.055604, -0.074604, -0.009831, -0.123693, -0.010948, -0.263227, -0.019591, -0.030692, 0.220927, -0.007333, -0.050274, 0.027349, 0.013487, -0.019015, -0.044495, 0.054845, 0.064444, -0.051765, 0.049081, -0.224496, 0.180625, 0.032622, -0.009808, -0.028823, 0.099004, 0.171953, -0.099349, -0.042844, -0.088622, 0.187024, -0.123666, -0.012639, 0.065828, -0.058983, -0.142262, 0.017457, 0.092418, 0.02616, 0.042697, -0.057341, 0.200448, -0.038528, -0.231563, -0.099089, -0.279368, -0.102525, 0.114021, -0.040647, 0.077765, 0.069215, 0.248296, 0.268659, 0.009188, -0.064011, -0.000951, 0.186569, 0.10682, -0.122206, 0.286877, -0.093387, -0.059683], [-0.067331, -0.070181, 0.049709, 0.152622, -0.183754, -0.140602, -0.096257, 0.064707, 0.000346, -0.011825, 0.017658, 0.078314, 0.041027, -0.163903, 0.019122, 0.045798, -0.021274, -0.060602, -0.060215, 0.021405, 0.012377, 0.092328, 0.102365, -0.059862, 0.132754, 0.07694, -0.044176, 0.026763, -0.0121, -0.173225, 0.017065, 0.046647, 0.118166, -0.094536, 0.06798, -0.105418, -0.181526, -0.041469, -0.047852, 0.00808, -0.27666, -0.089575, -0.068441, -0.066845, -0.084757, -0.012426, -0.056419, 0.03568, -0.16889, 0.138918, -0.217079, 0.119024, 0.082222, 0.127123, 0.126312, -0.062369, -0.193235, 0.158928, -0.068689, 0.000199, -0.005518, -0.009813, -0.131078, -0.028865], [-0.073702, -0.056797, 0.109278, 0.118804, 0.003896, -0.062758, 0.053811, -0.03861, -0.070119, -0.25129, 0.102461, 0.251318, 0.143186, 0.007205, -0.156869, 0.119026, -0.103782, 0.001999, -0.079712, 0.107801, 0.030765, 0.024836, 0.102334, 0.0053, 0.116299, 0.099891, 0.055739, 0.029717, -0.097599, -0.090421, -0.183985, -0.084472, 0.058552, -0.049813, -0.200063, -0.039679, -0.142955, -0.176862, -0.020023, 0.004849, -0.230783, 0.01801, -0.015222, 0.056127, -0.183734, 0.042759, -0.00558, 0.109476, -0.143795, 0.02884, -0.177842, 0.102946, -0.000724, -0.019333, 0.02422, -0.11506, -0.158078, -0.135925, 0.051118, -0.082615, -0.194874, 0.089775, -0.10219, -0.045538], [0.100646, -0.048197, -0.043979, 0.164082, 0.058639, -0.060782, -0.001532, -0.055488, -0.131419, -0.141982, 0.053608, 0.181185, 0.041794, 0.00289, -0.041376, 0.047022, -0.055518, -0.03015, -0.033714, -0.109464, 0.19397, 0.091169, 0.135914, 0.005318, -0.012599, 0.065207, 0.058995, 0.033603, 0.023767, -0.039759, -0.089983, 0.048055, 0.236123, -0.136784, -0.131055, 0.122143, 0.120916, -0.008244, 0.033233, -0.108601, -0.142172, 0.113407, 0.026913, 0.033576, 0.0561, 0.029564, 0.022705, -0.007206, -0.09164, 0.12183, -0.13908, -0.007068, -0.102948, 0.240785, 0.018736, -0.114433, -0.117259, 0.165597, 0.119956, -0.006771, -0.026248, -0.019829, -0.069467, -0.100629], [0.005325, 0.009333, 0.012218, 0.113312, 0.083549, -0.230073, 0.157465, -0.007951, -0.033333, -0.025796, 0.048917, 0.030011, 0.024533, -0.019053, -0.150174, 0.074924, 0.064924, -0.00386, -0.007278, -0.099814, 0.261354, 0.0578, 0.211497, -0.084963, 0.048743, 0.0144, -0.036485, -0.159891, 0.025865, -0.047785, -0.042183, 0.101055, 0.05046, 0.098363, -0.131403, 0.061002, 0.201513, 0.043242, -0.031245, -0.017385, -0.090852, 0.182812, 0.053694, -0.142571, -0.074716, 0.050691, 0.054856, 0.198716, -0.070809, 0.133327, -0.403001, -0.006818, -0.210185, 0.034355, 0.023276, -0.057765, -0.061659, 0.111103, -0.054745, -0.127772, -0.008743, -0.112532, -0.084291, -0.005086], [0.169374, 0.007826, -0.060583, 0.073238, -0.013623, -0.216496, 0.068117, -0.072979, -0.182374, -0.123652, 0.074468, 0.030876, 0.037912, -0.105887, -0.111379, 0.041405, -0.105241, -0.054242, -0.084239, -0.09267, 0.162227, 0.133066, 0.068636, 0.000776, 0.071318, 0.115176, -0.173784, 0.048515, 0.231689, -0.179645, -0.001525, 0.028819, 0.055155, -0.123814, -0.12102, 0.026053, 0.085673, -0.01393, -0.002847, 0.069858, -0.039111, 0.067179, -0.100512, 0.101103, 0.033757, -0.149103, -0.135783, -0.071495, 0.018232, 0.027899, -0.019856, -0.020712, -0.030943, -0.044374, 0.012065, -0.120263, -0.038573, -0.015593, 0.113197, -0.090704, -0.070127, -0.037587, -0.036109, -0.083544], [-0.15294, 0.012642, 0.016147, 0.164946, -0.175892, -0.069764, 0.046505, -0.085361, -0.128204, 0.004438, 0.003357, 0.03772, 0.064905, -0.189656, -0.022619, -0.038837, -0.0196, -0.060189, -0.032303, 0.070933, -0.153811, -0.06869, -0.007179, 0.087384, 0.199609, -0.005793, -0.003406, 0.112938, 0.110857, -0.191881, 0.06902, -0.070575, 0.021459, -0.144866, 0.032092, -0.033783, -0.14952, -0.034218, 0.053577, 0.026669, -0.117212, -0.076306, -0.142587, 0.029897, -0.120658, -0.031778, -0.102643, -0.208073, 0.020169, 0.101689, -0.181365, 0.18244, 0.096633, 0.036473, 0.082536, 0.008066, -0.236374, -0.065305, -0.077359, -0.002033, -0.06481, 0.125262, -0.101034, -0.045628], [-0.034023, 0.074933, -0.010165, -0.007626, 0.057216, -0.080055, -0.148819, -0.031727, -0.200004, -0.098764, 0.006988, 0.161254, -0.017518, -0.007441, -0.035815, -0.077885, -0.079314, -0.036878, 0.078732, 0.116006, 0.016032, 0.265446, 0.016762, 0.254348, 0.007556, -0.155445, -0.042597, 0.001093, -0.035565, -0.202135, -0.164722, 0.170396, 0.025074, -0.096938, 